tree
version=v4
num_class=1
num_tree_per_iteration=1
label_index=0
max_feature_idx=89
objective=binary sigmoid:1
feature_names=cash_current cash_opening cash_floor cash_critical provider_balance provider_opening provider_floor provider_critical provider_bkash provider_nagad provider_rocket hour_sin hour_cos day_sin day_cos is_weekend is_salary_day is_eid_event is_local_event is_unusual_hour feed_delay_min feed_missing balance_mismatch_amount cash_balance_mismatch_amount missing_feature_pct previous_shortage_count historical_count_same_hour historical_amount_same_hour baseline_count_deviation demand_acceleration provider_share_30m velocity_ratio cash_burn_rate_30m emoney_burn_rate_30m txn_count_5m cash_in_amount_5m cash_out_amount_5m net_cash_flow_5m provider_emoney_flow_5m avg_amount_5m max_amount_5m amount_std_5m unique_customers_5m max_txns_customer_5m failed_ratio_5m high_value_ratio_5m repeated_exact_count_5m near_identical_count_5m txn_count_15m cash_in_amount_15m cash_out_amount_15m net_cash_flow_15m provider_emoney_flow_15m avg_amount_15m max_amount_15m amount_std_15m unique_customers_15m max_txns_customer_15m failed_ratio_15m high_value_ratio_15m repeated_exact_count_15m near_identical_count_15m txn_count_30m cash_in_amount_30m cash_out_amount_30m net_cash_flow_30m provider_emoney_flow_30m avg_amount_30m max_amount_30m amount_std_30m unique_customers_30m max_txns_customer_30m failed_ratio_30m high_value_ratio_30m repeated_exact_count_30m near_identical_count_30m txn_count_60m cash_in_amount_60m cash_out_amount_60m net_cash_flow_60m provider_emoney_flow_60m avg_amount_60m max_amount_60m amount_std_60m unique_customers_60m max_txns_customer_60m failed_ratio_60m high_value_ratio_60m repeated_exact_count_60m near_identical_count_60m
feature_infos=[19:314319] [30907:148274] none none [65:1415427] [12053:99575] none none [0:1] [0:1] [0:1] [-1:1] [-1:1] [-0.97492790222167969:0.97492790222167969] [-0.90096884965896606:1] [0:1] [0:1] none [0:1] [0:1] [0:29479590] none [0:9000] none none [0:36] [0:56] [0:146364] [-1:25] [0:4] [0:1] [0:80] [0:3815.13330078125] [0:1250] [0:26] [0:33600] [0:96490] [-94790:33000] [-33000:94790] [0:39265] [0:39950] [0:19187] [0:17] [0:12] [0:1] [0:1] [0:7] [0:11] [0:26] [0:33600] [0:96490] [-94790:33000] [-33000:94790] [0:39265] [0:39950] [0:19187] [0:17] [0:12] [0:1] [0:1] [0:7] [0:11] [0:33] [0:40650] [0:114454] [-114454:37500] [-37500:114454] [0:38758] [0:39950] [0:19307.5] [0:30] [0:19] [0:1] [0:1] [0:7] [0:12] [0:56] [0:67750] [0:117181] [-117004:44550] [-44550:117004] [0:33739] [0:39950] [0:18804] [0:50] [0:26] [0:1] [0:1] [0:8] [0:14]
tree_sizes=3376 3411 3417 3407 3412 3416 3412 3413 3440 3444 3441 3438 3443 3443 3443 3445 3464 3447 3455 3473 3448 3458 3441 3454 3460 3469 3436 3464 3445 3461 3458 3440 3478 3455 3460 3464 3440 3422 3454 3429 3467 3466 3445 3461 3490 3474 3453 3469 3474 3470 3451 3456 3469 3465 3430 3450 3479 3450 3474 3492 3448 3450 3482 3454 3478 3465 3445 3466 3460 3439 3462 3436 3452 3457 3458 3452 3472 3459 3423 3431 3437 3490 3463 3463 3459 3444 3451 3440 3467 3435 3432 3489 3433 3464 3428 3455 3438 3460 3449 3445 3446 3468 3444 3476 3455 3454 3446 3464 3502 3429 3480 3439 3419 3466 3493 3450 3459 3432 3458 3465 3444 3432 3451 3422 3482 3478 3435 3430 3480 3463 3437 3449 3454 3450 3464 3443 3455 3443 3488 3472 3422 3461 3453 3429 3429 3441 3468 3437 3438 3439 3434 3482 3498 3462 3484 3451 3413 3442 3455 3413 3462 3454 3424 3446 3454 3433 3449 3472 3453 3461 3429 3438 3417 3454 3430 3435 3423 3452 3456 3426 3430 3419 3454 3477 3414 3458 3440 3442 3466 3472 3435 3432 3466 3445 3420 3436 3444 3421 3453 3459 3420 3449 3448 3454 3483 3446 3466 3461 3451 3451 3444 3471 3450 3451 3445 3452 3454 3460 3439 3465 3439 3460 3436 3461 3425 3444 3452 3457 3405 3466 3457 3455 3454 3461 3476 3436 3468 3444 3428 3463 3457 3457 3438 3448 3469 3430 3433 3453 3470 3436 3426 3431 3435 3430 3470 3423 3447 3432 3447 3446 3445 3453 3462 3445 3472 3435 3443 3463 3478 3472 3443 3426 3462 3435 3456 3446 3454 3449 3462 3483 3442 3446 3456 3449 3440 3465 3422 3443 3458 3456 3475 3485 3438 3426 3454 3461 3421 3439 3431 3434

Tree=0
num_leaves=31
num_cat=0
split_feature=0 25 0 25 0 25 25 25 0 25 0 25 0 25 12 1 11 0 14 0 4 1 12 0 1 12 0 11 13 12
split_gain=237272 59507.7 20996.9 18305.4 12988.4 9043.98 5240.14 16479.8 3874.72 3750.56 4257.6 5725.91 3250.63 2710.32 1953.72 1267.35 1223.73 1275.4 1220.93 1215.94 1170.15 1020.16 1214.31 979.596 962.723 887.792 865.858 986.612 842.391 841.02
threshold=52928.500000000007 1.0000000180025095e-35 30481.000000000004 3.5000000000000004 74858.500000000015 4.5000000000000009 1.0000000180025095e-35 3.5000000000000004 41244.000000000007 3.5000000000000004 9256.5000000000018 4.5000000000000009 34572.500000000007 4.5000000000000009 0.60355338454246532 35069.500000000007 1.0000000180025095e-35 68020.000000000015 1.0000000180025095e-35 24771.500000000004 12473.500000000002 31638.000000000004 -0.7865660786628722 118663.00000000001 39213.500000000007 -0.12940952181816107 37272.500000000007 -0.7865660786628722 -0.87837970256805409 0.91597560048103344
decision_type=2 2 2 2 2 2 2 2 2 2 2 2 2 2 2 2 2 2 2 2 2 2 2 2 2 2 2 2 2 2
left_child=1 12 9 -4 6 -5 -2 -8 24 -3 -11 15 19 -9 -13 -12 -15 28 -17 25 -6 22 -10 -22 26 -1 -7 -28 -18 -19
right_child=4 2 3 5 20 8 7 13 21 10 11 14 -14 16 -16 18 17 29 -20 -21 23 -23 -24 -25 -26 -27 27 -29 -30 -31
leaf_value=-2.503177617801736 -2.7114425539709703 -1.9518337779175625 -1.9660681235763384 -2.570002150803091 -2.3090412078909002 -2.2658984636397714 -2.0208083268805965 -2.7579739336759999 -2.2701548435289967 -2.0161813904820272 -2.1393878201710863 -2.1039898024107462 -2.6937509208490851 -2.62139008520038 -2.2380914979833406 -2.3958201633906939 -2.2811130616267743 -2.8608239785256466 -2.7073885456227083 -2.4467316718513064 -2.7562772240776017 -2.373645504130665 -2.886338110673405 -2.8197043190728799 -2.2098765868214367 -2.7625285682180998 -2.2133869050045618 -2.5543469222133992 -2.4957893463645382 -2.3128261477219985
leaf_weight=65.454995449632406 585.93697797134519 421.11173215508461 396.22075349092484 349.4821775816381 12.322895087301729 311.06316176056862 139.47195124253631 221.1070566624403 11.485259748995302 812.64143355935812 32.052050106227398 1601.9800685383379 510.80037742480636 308.4667186550796 367.14619290828705 104.57906617969275 69.216726832091808 31.518265832215548 46.301714725792408 284.49875032901764 1692.3497504144907 705.61559789255261 21.830871004611254 951.35946844518185 884.13007437065244 66.980837140232325 31.888284794986248 70.528687231242657 163.98001420870423 7.9709530845284453
leaf_count=769 9235 600 670 4574 91 2284 370 3678 75 2159 147 6921 7880 4336 2505 1019 520 586 724 3060 28107 6628 417 16937 5578 1119 192 898 1913 56
internal_value=-2.41116 -2.23509 -2.17893 -2.2812 -2.70986 -2.33388 -2.59374 -2.52071 -2.29351 -2.09508 -2.11572 -2.15367 -2.60876 -2.60853 -2.12868 -2.42508 -2.5519 -2.47436 -2.48996 -2.50521 -2.77671 -2.38647 -2.66363 -2.77909 -2.24096 -2.63282 -2.30876 -2.4432 -2.42997 -2.74003
internal_weight=11279.5 7095.79 6168.06 2782.24 4183.7 2386.02 1527.67 941.732 2036.54 3385.81 2964.7 2152.06 927.735 802.26 1969.13 182.933 581.153 272.686 150.881 416.935 2656.03 738.932 33.3161 2643.71 1297.61 132.436 413.48 102.417 233.197 39.4892
internal_count=114048 48219 35391 21316 65829 20646 20694 11459 16072 14075 13475 11316 12828 11089 9426 1890 7411 3075 1743 4948 45135 7120 492 45044 8952 1888 3374 1090 2433 642
is_linear=0
shrinkage=1


Tree=1
num_leaves=31
num_cat=0
split_feature=0 25 0 0 25 25 13 0 4 1 25 0 12 19 13 12 11 1 11 4 0 12 86 4 12 14 25 1 0 14
split_gain=71759.9 14586 3882.28 3453.62 2956.03 2540.11 1478.51 1460.01 1411.03 1616.88 1225.99 964.813 1046.5 866.155 861.584 1070.05 821.252 877.942 741.459 704.865 730.166 697.859 660.469 646.26 618.331 599.718 731.348 579.109 571.139 565.614
threshold=59521.000000000007 1.0000000180025095e-35 35768.500000000007 75388.500000000015 3.5000000000000004 4.5000000000000009 -0.87837970256805409 34572.500000000007 15981.500000000002 110890.00000000001 1.0000000180025095e-35 45776.500000000007 0.37940952181816107 1.0000000180025095e-35 1.0000000180025095e-35 -0.6035533845424651 0.60355338454246532 31638.000000000004 -0.7865660786628722 23711.000000000004 118663.00000000001 -0.91597560048103321 0.042572464793920524 285064.00000000006 -0.7865660786628722 -0.56174489110708226 7.5000000000000009 41430.500000000007 18003.500000000004 -0.56174489110708226
decision_type=2 2 2 2 2 2 2 2 2 2 2 2 2 2 2 2 2 2 2 2 2 2 2 2 2 2 2 2 2 2
left_child=1 7 13 6 -4 -6 -2 14 -8 -10 21 16 -13 -3 15 -1 17 -7 -12 -5 22 -11 24 -20 -21 -14 -27 -28 -16 -18
right_child=3 2 4 19 5 11 8 -9 9 10 18 12 25 -15 28 -17 29 -19 23 20 -22 -23 -24 -25 -26 26 27 -29 -30 -31
leaf_value=0.29417275525614056 0.25365341493580779 0.37324100168523544 0.39315481013226639 0.26908838311338701 0.16182039980035864 0.091322489671639487 0.44845622147120773 0.12693406522652087 0.067362714076504709 0.35377416478795443 -0.0044220493733691628 0.29065629054574282 0.048000790480783054 0.331328398147406 0.038361025825643741 0.11008726430199299 0.11353049844389113 0.35086937142341434 0.10797249665275561 0.0046321007079132611 0.014345476787027134 0.037399422994100318 0.36705361883504911 0.39026098233916379 0.079826086165949259 0.37835271599284681 0.033504316444497632 0.24325693046133653 0.33356187305759327 0.28278935891089546
leaf_weight=128.7761801853776 281.36748512089252 6180.7245391011238 695.84190040081739 36.078375156968832 410.43742771074176 34.431086573749781 31.290693510323763 793.30204531550407 640.22563995420933 20.063029166311026 17.503935318440199 581.9169832020998 74.495924729853868 1658.4505380839109 18.114597514271736 206.9590160921216 59.986436285078526 1101.1547106653452 25.675733022391796 338.9552067220211 961.69889743998647 102.91374751925468 17.376597940921783 115.82493138313293 1415.328288346529 50.299366414546967 57.845588486641645 76.459232524037361 203.52319799736142 337.147978708148
leaf_count=933 2439 13995 602 312 4749 381 127 10732 8918 183 282 4075 889 5788 261 2368 534 4813 325 5666 16891 1587 165 503 21654 238 714 591 1386 1947
internal_value=0.267971 0.326281 0.344819 0.0834382 0.300578 0.277308 0.152952 0.170787 0.123001 0.111484 0.211069 0.2972 0.253291 0.364417 0.232863 0.18136 0.321112 0.343087 0.302433 0.0523988 0.0494413 0.0914516 0.0684733 0.340156 0.0653083 0.168578 0.216716 0.153831 0.309716 0.257572
internal_weight=16674.2 12669.9 11319.2 4004.3 3480.02 2784.17 1234.87 1350.68 953.498 922.207 281.981 2373.74 841.017 7839.18 557.373 335.735 1532.72 1135.59 159.005 2769.44 2733.36 122.977 1771.66 141.501 1754.28 259.1 184.604 134.305 221.638 397.134
internal_count=114048 54996 39316 59052 19533 18931 14364 15680 11925 11798 2880 14182 6507 19783 4948 3301 7675 5194 1110 44688 44376 1770 27485 828 27320 2432 1543 1305 1647 2481
is_linear=0
shrinkage=0.05


Tree=2
num_leaves=31
num_cat=0
split_feature=0 25 0 0 25 25 25 25 0 4 0 4 12 13 12 0 18 27 78 39 13 84 62 69 18 0 11 25 0 4
split_gain=37755.7 6948.03 2435.03 1767.66 1617.4 1497.5 1091.44 2262.95 816.931 741.505 572.305 537.749 505.999 477.803 502.961 459.037 565.812 613.716 484.479 428.709 432.147 419.775 378.762 377.512 372.679 415.938 349.867 489.963 743.793 484.088
threshold=59521.000000000007 1.0000000180025095e-35 77961.000000000015 31515.000000000004 3.5000000000000004 4.5000000000000009 1.0000000180025095e-35 3.5000000000000004 34572.500000000007 889642.00000000012 45776.500000000007 12473.500000000002 0.37940952181816107 -0.87837970256805409 -0.91597560048103321 118663.00000000001 1.0000000180025095e-35 37851.250000000007 2325.0000000000005 2337.9807128906255 1.0000000180025095e-35 12.500000000000002 5.5000000000000009 564.04266357421886 1.0000000180025095e-35 45088.500000000007 -1.0000000180025095e-35 12.500000000000002 110824.50000000001 338622.00000000006
decision_type=2 2 2 2 2 2 2 2 2 2 2 2 2 2 2 2 2 2 2 2 2 2 2 2 2 2 2 2 2 2
left_child=1 8 6 -3 -5 23 13 -8 19 11 22 -9 -12 -2 21 16 26 -18 -17 -1 -21 -15 -7 -6 -10 -26 27 29 -29 -4
right_child=2 3 15 4 5 10 7 9 24 -11 12 -13 -14 14 -16 18 17 -19 -20 20 -22 -23 -24 -25 25 -27 -28 28 -30 -31
leaf_value=0.19862218025960579 0.1740150863487043 0.26519477647695749 0.024364807298540143 0.28214781583048049 0.09387969159501719 0.22583881277903078 0.30290122993250956 0.33377757967722244 0.10037625566003996 0.27551023371455147 0.21657848942339342 0.093034074445001752 0.13837238930379439 0.028381740609186364 0.026860299074827315 0.079945644349236483 0.13045575462011968 0.52641452322870241 -0.0020004358564270452 -0.0088161410403881316 0.18758079225753782 0.27265025750825317 0.26412524328426457 0.17553113517860938 -0.048274153039467027 0.33578747528811403 0.032491478097228174 0.10748204454726842 0.57074329279694802 0.10499624728128687
leaf_weight=566.32761493325233 88.874788977205753 8648.3329169675708 339.2823170684278 1191.3440031409264 246.16373289376497 2223.7879124395549 204.25573801621795 23.179178692400455 844.86834120750427 66.1640470251441 737.19164574146271 699.43056044355035 298.36204017698765 30.75743642449379 413.01028088852763 236.3254459053278 64.118037555366755 10.846111219376324 751.34232937917113 55.592758126556873 55.276078827679157 40.893028203397989 987.70322246104479 347.32056923955679 8.6748766601085645 31.946456953883171 882.22572258859873 31.103323724120855 11.372622549533842 413.50736715272069
leaf_count=3944 881 15073 5179 767 2542 8503 313 63 10356 406 4075 8092 2432 427 6083 3737 817 47 13213 645 359 340 2871 3053 131 245 13317 422 45 5670
internal_value=0.205048 0.239945 0.0734073 0.25062 0.229683 0.216715 0.123117 0.154835 0.139569 0.116158 0.227136 0.101207 0.194201 0.0680262 0.0482722 0.0449528 0.0603112 0.19392 0.0176683 0.180982 0.0899033 0.169627 0.237692 0.141879 0.107729 0.25458 0.0542285 0.0782713 0.241792 0.0687362
internal_weight=20549.6 16242.9 4306.69 14680.2 6031.87 4840.53 1566.57 993.03 1562.69 788.774 4247.04 722.61 1035.55 573.536 484.661 2740.12 1752.46 74.9641 987.668 677.196 110.869 71.6505 3211.49 593.484 885.49 40.6213 1677.49 795.266 42.4759 752.79
internal_count=114048 54996 59052 39316 24243 23476 16605 8874 15680 8561 17881 8155 6507 7731 6850 42447 25497 864 16950 4948 1004 767 11374 5595 10732 376 24633 11316 467 10849
is_linear=0
shrinkage=0.05


Tree=3
num_leaves=31
num_cat=0
split_feature=0 25 0 25 4 25 0 25 25 1 0 11 0 1 25 25 25 25 0 86 0 13 1 84 35 1 12 4 1 11
split_gain=24149.1 4785.11 1398.69 1082.63 1009.08 942.336 860.373 687.409 2588.97 1015.98 842.983 618.132 557.527 516.364 427.717 640.466 582.515 725.229 754.23 415.758 403.96 460.355 817.167 400.101 379.89 376.318 399.024 361.413 355.601 471.584
threshold=64596.000000000007 1.0000000180025095e-35 36086.500000000007 3.5000000000000004 23711.000000000004 4.5000000000000009 99506.000000000015 1.0000000180025095e-35 3.5000000000000004 146751.50000000003 98205.000000000015 0.91597560048103344 34572.500000000007 42332.500000000007 3.5000000000000004 5.5000000000000009 7.5000000000000009 8.5000000000000018 7041.5000000000009 0.069366481155157103 5249.0000000000009 0.6078576147556306 138191.00000000003 8.5000000000000018 14375.000000000002 31638.000000000004 0.60355338454246532 19447.500000000004 45296.000000000007 0.91597560048103344
decision_type=2 2 2 2 2 2 2 2 2 2 2 2 2 2 2 2 2 2 2 2 2 2 2 2 2 2 2 2 2 2
left_child=1 12 14 -4 -2 -5 7 24 -9 10 19 -11 -1 -8 -3 20 -17 18 -18 -10 -16 -22 -23 -14 -6 26 -7 -27 -29 -30
right_child=4 2 3 5 6 25 13 8 9 11 -12 -13 23 -15 15 16 17 -19 -20 -21 21 22 -24 -25 -26 27 -28 28 29 -31
leaf_value=0.14834851382837749 0.21522162159964889 0.23156836672454242 0.22108161539550528 0.10735573187857167 0.036923222928868744 0.14093623532093788 0.11683013301271215 0.26058181123641116 0.043284863206211228 0.036404619109710178 0.27937172235385982 0.55273118515020914 0.06581894781642636 0.016608621043999548 0.22270580774354834 0.24254590443840668 0.22832841965208717 0.20981130424700797 0.12809582012341167 0.26692606522617196 0.17506317721910833 0.047067312606857856 0.29513885913179039 0.12522260683217767 0.32936474188272591 0.29483287011133869 -0.053267885628249405 0.16622237574482499 0.21159446702466853 0.066613388149867558
leaf_weight=781.70969334244728 96.010684445500374 1727.0734252035618 1136.8499787002802 597.90970299392939 948.71648952364922 111.21718417480588 139.22363621369004 201.27739161998034 971.46436828747392 9.0432147495448607 40.105270121246576 15.922187179327009 617.25699315220118 1547.9151746071875 351.82132443785667 1186.5690855532885 280.50464197993279 6958.7726195529103 585.91741590201855 20.283607378602028 1044.848199903965 176.18344653397799 40.068048305809498 530.91496139019728 10.255923520773647 66.812824033200741 34.018073298037052 2540.1553690433502 902.81663952022791 61.020100228488445
leaf_count=4948 453 792 686 5555 13177 666 1803 472 12630 126 382 18 7304 24864 310 1269 214 11100 1957 95 3363 1068 42 5540 73 128 444 10985 3206 378
internal_value=0.167882 0.190591 0.198702 0.177477 0.0558448 0.165937 0.0518713 0.0723425 0.096646 0.0652067 0.0573729 0.374307 0.115706 0.0249433 0.208053 0.204209 0.209451 0.204403 0.160772 0.0481231 0.174807 0.161279 0.0941781 0.0933723 0.0403906 0.175332 0.0953951 0.178555 0.176255 0.202494
internal_weight=23732.7 19732.4 17802.6 5450.8 4000.22 4313.95 3904.21 2217.07 1258.1 1056.82 1031.85 24.9654 1929.88 1687.14 12351.8 10624.7 9011.76 7825.19 866.422 991.748 1612.92 1261.1 216.251 1148.17 958.972 3716.04 145.235 3570.8 3503.99 963.837
internal_count=114048 59955 42163 22048 54093 21362 53640 26973 13723 13251 13107 144 17792 26667 20115 19323 14540 13271 2171 12725 4783 4473 1110 12844 13250 15807 1110 14697 14569 3584
is_linear=0
shrinkage=0.05


Tree=4
num_leaves=31
num_cat=0
split_feature=0 25 0 25 25 25 4 11 25 25 0 1 25 0 0 76 12 11 0 1 86 84 0 13 1 11 13 11 12 1
split_gain=16919.8 3384.56 1078.65 838.466 790.363 1906.22 702.268 567.102 467.045 688.126 509.684 455.984 463.656 481.249 449.587 418.352 386.731 371.671 338.745 333.529 333.115 332.861 331.686 318.951 307.123 401.272 302.046 293.439 314.924 447.158
threshold=64596.000000000007 1.0000000180025095e-35 43404.000000000007 3.5000000000000004 1.0000000180025095e-35 3.5000000000000004 27212.000000000004 1.0000000180025095e-35 3.5000000000000004 4.5000000000000009 5249.0000000000009 146751.50000000003 7.5000000000000009 118663.00000000001 25634.500000000004 8.5000000000000018 0.98296290636062633 0.37940952181816107 118663.00000000001 31638.000000000004 0.042572464793920524 8.5000000000000018 93972.000000000015 0.87837970256805431 31638.000000000004 0.37940952181816107 -0.87837970256805409 -1.0000000180025095e-35 0.12940952181816107 42667.500000000007
decision_type=2 2 2 2 2 2 2 2 2 2 2 2 2 2 2 2 2 2 2 2 2 2 2 2 2 2 2 2 2 2
left_child=1 15 8 -4 -2 22 -7 19 -3 10 -10 17 13 26 16 -1 -11 18 20 -5 -8 -9 -6 -16 25 -25 -13 28 29 -26
right_child=4 2 3 7 5 6 11 21 9 14 -12 12 -14 -15 23 -17 -18 -19 -20 -21 -22 -23 -24 24 27 -27 -28 -29 -30 -31
leaf_value=0.077772586929372264 0.027913030221445246 0.19217789519023976 0.18559871451830778 -0.053763155887496722 0.21127884831841223 0.19457118607433083 0.06424289124672794 0.13160269972011765 0.18790461212502196 0.18214017829306275 0.11365857902131359 -0.044931869872620399 -0.051063861036497175 0.024298470215915052 0.16555119515748196 0.12242496480578453 0.061265255986688971 0.0066854405426153042 0.00088693656107883081 0.105788259250005 0.23609551222218222 0.18551118788022669 0.01633273798000643 -0.013783176467868259 -0.060366364720421922 0.23698421342808926 0.35522993021838617 0.05728567280364584 0.18153665903116667 0.1643470440404772
leaf_weight=1066.408964805305 2005.5097671560943 2443.1281222105026 792.79641455411911 33.122870668768883 250.72726638615131 83.530299868434668 948.80344462022185 930.32204500585794 311.90861243009567 6541.6087786257267 932.10244160145521 5.0827545002102843 20.071753345429897 21.682718429714441 5902.5170363262296 1049.9878468215466 68.134858921170235 535.06272464990616 220.89258347079158 1171.4530707448721 28.234322346746922 428.51815110445023 24.081781279295683 18.856667377054691 39.639345049858093 98.932995118200779 40.524769432842731 185.24971050769091 163.56867392361164 48.007500112056732
leaf_count=9772 29095 1025 453 408 423 355 11382 4965 231 7424 4673 78 327 354 12538 8020 261 7716 3779 6968 109 1570 346 138 258 90 129 783 291 87
internal_value=0.142836 0.1602 0.166533 0.140524 0.0505836 0.0714297 0.0535994 0.126517 0.171735 0.168231 0.13241 0.0470274 0.157904 0.220071 0.171631 0.0999729 0.180904 0.0413501 0.0568148 0.10136 0.0694454 0.148727 0.194317 0.162113 0.125266 0.197061 0.310626 0.105484 0.140658 0.0631832
internal_weight=26410.5 22226.3 20109.9 3356.21 4184.2 2178.69 1903.89 2563.42 16753.7 14310.5 1244.01 1820.36 87.362 67.2902 13066.5 2116.4 6609.74 1732.99 1197.93 1204.58 977.038 1358.84 274.809 6456.77 554.255 117.79 45.6075 436.465 251.216 87.6468
internal_count=114048 59955 42163 14364 54093 24998 24229 13911 27799 26774 4904 23874 888 561 21870 17792 7685 22986 15270 7376 11491 6535 769 14185 1647 228 207 1419 636 345
is_linear=0
shrinkage=0.05


Tree=5
num_leaves=31
num_cat=0
split_feature=0 25 0 0 25 13 25 25 25 0 11 12 12 12 77 25 25 1 25 0 1 0 14 11 12 25 1 89 63 14
split_gain=12651.2 2082.36 1279.34 725.658 802.652 635.33 569.169 510.311 516.287 445.455 387.451 362.978 347.747 325.207 323.888 314.964 844.699 468.494 884.624 338.047 331.598 314.675 306.866 361.538 300.103 299.379 297.78 297.595 292.531 287.733
threshold=57661.500000000007 1.0000000180025095e-35 77961.000000000015 26913.500000000004 3.5000000000000004 -0.87837970256805409 4.5000000000000009 1.0000000180025095e-35 3.5000000000000004 52521.500000000007 0.78656607866287243 0.91597560048103344 -0.7865660786628722 -0.91597560048103321 925.00000000000011 7.5000000000000009 6.5000000000000009 39213.500000000007 8.5000000000000018 43404.000000000007 143785.50000000003 77429.500000000015 0.81174489855766307 -0.6035533845424651 0.98296290636062633 13.500000000000002 35069.500000000007 2.5000000000000004 4675.0000000000009 -0.56174489110708226
decision_type=2 2 2 2 2 2 2 2 2 2 2 2 2 2 2 2 2 2 2 2 2 2 2 2 2 2 2 2 2 2
left_child=1 10 5 24 -5 21 9 13 -9 26 11 -1 -4 -7 -10 16 -8 18 -17 -20 -18 25 27 -24 -3 28 -6 -21 -2 -12
right_child=2 3 12 4 6 7 15 8 14 -11 29 -13 -14 -15 -16 17 20 -19 19 22 -22 -23 23 -25 -26 -27 -28 -29 -30 -31
leaf_value=0.11172575949166502 0.13142020693665243 0.15598554199649528 -0.0015731090396299365 0.16469848881089832 0.19481085566934761 0.11354809642290807 0.13175378252234637 0.15146078069558422 0.15194731426305169 -0.015280747914619228 0.10379354884519849 0.041947925609431835 0.042103279993928433 0.015423129063491803 0.058232795082751879 0.022004753167014432 0.21473830445225414 0.13843661813007754 0.13105362161758946 -0.018685988030509589 0.032167139738665362 0.3612362403185822 -0.055540231021084435 0.2052350234702992 0.068639477919206479 0.21451564231487943 0.094762709719756297 0.097472575687319596 0.043951965921962932 0.013621807127442254
leaf_weight=1404.6958982124925 356.01999327540398 9802.8363411277533 557.12935747206211 2079.1970787793398 82.256909631192684 100.14629522711039 1416.7995712347329 251.24767132848501 104.77054447680712 85.182644538581371 137.89965122938156 216.72831741720438 2501.3084695227444 513.99332892894745 752.61805242300034 254.81684405356646 509.72066400200129 4317.1550446003675 1534.4105741083622 106.07216633111238 26.548602364957333 13.477088078856466 16.090878911316395 66.48932409286499 101.55275908857584 76.765142738819122 804.55459193885326 113.22430941835046 132.387112647295 244.67022725194693
leaf_count=9534 1908 10324 8559 882 189 848 3685 282 618 897 1067 1916 33888 6646 6870 1341 366 10049 3649 791 120 66 135 123 330 185 4895 526 988 2371
internal_value=0.12464 0.14056 0.055357 0.145144 0.136494 0.0835137 0.130194 0.0682167 0.0884636 0.0937713 0.0917454 0.10243 0.0341492 0.0315827 0.0698481 0.134416 0.152174 0.128982 0.109404 0.121514 0.205777 0.12886 0.0727522 0.154366 0.155097 0.122691 0.104252 0.0414577 0.107849 0.0463106
internal_weight=28680.8 23320.9 5359.86 21316.9 11412.5 2301.43 9333.32 1722.78 1108.64 971.994 2003.99 1621.42 3058.44 614.14 857.389 8361.33 1953.07 6408.26 2091.1 1836.29 536.269 578.649 301.877 82.5802 9904.39 565.172 886.812 219.296 488.407 382.57
internal_count=114048 53190 60858 38302 27648 18411 26766 15264 7770 5981 14888 11450 42447 7494 7488 20785 4171 16614 6565 5224 486 3147 1575 258 10654 3081 5084 1317 2896 3438
is_linear=0
shrinkage=0.05


Tree=6
num_leaves=31
num_cat=0
split_feature=0 25 0 25 25 25 25 4 0 1 25 0 11 26 0 25 82 4 78 77 26 0 25 25 0 12 1 1 13 25
split_gain=9988.66 2144.18 794.669 778.157 563.25 1267.93 508.926 489.907 341.679 322.617 310.489 299.137 294.392 267.853 263.844 260.807 347.67 258.779 339.082 296.71 290.196 253.247 251.724 532.981 398.779 652.602 269.401 248.854 341.197 337.535
threshold=64596.000000000007 1.0000000180025095e-35 31515.000000000004 3.5000000000000004 1.0000000180025095e-35 3.5000000000000004 4.5000000000000009 27212.000000000004 33068.500000000007 146751.50000000003 7.5000000000000009 24771.500000000004 0.37940952181816107 9.8333334922790545 118663.00000000001 12.500000000000002 8002.0000000000009 373071.50000000006 825.00000000000011 2875.0000000000005 23.583333015441898 64115.000000000007 7.5000000000000009 6.5000000000000009 45776.500000000007 1.0000000180025095e-35 143785.50000000003 45296.000000000007 1.0000000180025095e-35 16.500000000000004
decision_type=2 2 2 2 2 2 2 2 2 2 2 2 2 2 2 2 2 2 2 2 2 2 2 2 2 2 2 2 2 2
left_child=1 8 -3 -4 -2 -6 -5 -7 11 12 14 13 15 -1 -11 17 -17 18 19 -9 -19 -10 23 -8 -24 27 -25 -26 29 -29
right_child=4 2 3 6 5 7 22 9 21 10 -12 -13 -14 -15 -16 16 -18 20 -20 -21 -22 -23 24 26 25 -27 -28 28 -30 -31
leaf_value=0.02090863776823048 0.023232193547236955 0.1350318703146953 0.1448927822947523 0.075047449858798604 0.15046974076337524 0.15191819272011869 0.11388066533270036 0.26620180257460935 0.060760184312982725 0.22119819643483285 -0.050992989419313663 0.12241236350409863 0.0036080235845936991 0.1194094637002871 0.020654913278664529 0.073623820729883396 0.27669740103846702 0.055347301350423705 0.0038477241523071485 -0.0050846144562025734 0.25121483578721826 0.21034822601375769 0.11662082365197024 0.18559446686966874 0.093361709997029141 0.038203312774968912 0.026203363440338148 0.0077674599690732288 0.20488264251292759 0.18024463379956002
leaf_weight=173.84616449475288 2120.2737923115492 13674.532009407878 1941.6931380629539 952.85499136894941 324.03882026299834 99.551567129790783 1307.2715726308525 23.039172325283289 1518.9193458333611 59.911016136407852 19.819941561669111 608.36635582894087 561.34820253029466 114.04674524068832 22.746509343385696 123.88452606648207 24.771881818771362 573.46668468788266 527.13535571470857 17.292289681732655 18.661091916263103 28.01800549030304 3962.2880327403545 446.09395015984774 612.85938251763582 481.77949248626828 28.561216674745083 61.812553264200687 140.08335488289595 51.571297310292721
leaf_count=1358 29095 15073 860 6461 769 355 3824 143 13210 207 327 2518 7716 530 354 1075 109 6714 6888 215 126 176 9223 358 2535 3021 138 353 252 65
internal_value=0.11069 0.122568 0.127175 0.116404 0.0420186 0.0586287 0.109512 0.0441975 0.077916 0.0386855 0.124686 0.10252 0.0339074 0.0602073 0.166917 0.0468957 0.109086 0.0388359 0.0146682 0.152578 0.0619333 0.0636037 0.114131 0.130538 0.108602 0.0849628 0.176079 0.110893 0.152747 0.0871066
internal_weight=30620.5 26104.6 23661.4 9986.87 4515.94 2395.67 8045.18 2071.63 2443.2 1972.08 102.477 896.259 1869.6 287.893 82.6575 1308.25 148.656 1159.59 567.467 40.3315 592.128 1546.94 7092.32 1781.93 5310.39 1348.11 474.655 866.327 253.467 113.384
internal_count=114048 59955 42163 27090 54093 24998 26230 24229 17792 23874 888 4406 22986 1888 561 15270 1184 14086 7246 358 6840 13386 19769 4320 15449 6226 496 3205 670 418
is_linear=0
shrinkage=0.05


Tree=7
num_leaves=31
num_cat=0
split_feature=0 25 25 0 25 0 13 0 4 1 4 1 4 1 12 4 0 83 75 0 26 81 13 12 1 27 77 25 84 0
split_gain=8113.52 1653.49 740.812 789.238 758.681 728.141 361.279 350.717 323.603 315.915 310.214 384.733 335.308 406.049 282.398 281.497 279.78 267.912 298.884 261.227 244.291 243.182 240.38 336.93 312.253 232.938 252.329 228.402 262.466 246.01
threshold=59521.000000000007 1.0000000180025095e-35 3.5000000000000004 12720.500000000002 4.5000000000000009 77961.000000000015 -0.87837970256805409 43404.000000000007 196309.00000000003 146751.50000000003 19447.500000000004 110890.00000000001 329081.50000000006 146751.50000000003 -0.7865660786628722 221136.00000000003 65015.500000000007 2548.411499023438 3.5000000000000004 34572.500000000007 10.166666507720949 2425.657836914063 1.0000000180025095e-35 -0.6035533845424651 40180.000000000007 12818.333496093752 1475.0000000000002 4.5000000000000009 15.500000000000002 115543.50000000001
decision_type=2 2 2 2 2 2 2 2 2 2 2 2 2 2 2 2 2 2 2 2 2 2 2 2 2 2 2 2 2 2
left_child=1 19 -3 -4 -5 6 -2 9 21 20 -8 -12 -13 16 17 -10 -14 -7 -19 22 -6 -9 23 -1 -25 26 -17 28 -16 -30
right_child=5 2 3 4 7 14 10 8 15 -11 11 12 13 -15 27 25 -18 18 -20 -21 -22 -23 -24 24 -26 -27 -28 -29 29 -31
leaf_value=0.1117356188010187 0.10033107271392235 0.13503513167833323 0.13072514762997617 0.07221315066920779 0.10832626627906582 -0.012133357893615483 0.1453460287185529 0.12560082368481926 -0.016424594180624582 -0.026005758739149915 0.031141419065137219 0.011335516566001064 0.17076370115573669 -0.022210542163682786 0.019181226543033836 0.1089128418171369 0.080369270198832082 0.036724249861505194 0.35001912819231668 0.05556648324605501 0.12325701328501355 0.029883424056869425 0.11675959045558271 0.11170945643776219 0.0077892364999026633 0.097157123218993779 0.029866181701627411 0.060219379042083181 0.10362337683437009 0.0094167809289657546
leaf_weight=260.92323897778988 572.85404873639345 3838.5102406442165 4097.6684165000916 1506.2450243085623 8540.0978827029467 533.93227444961667 87.485433153808117 731.33325450122356 75.733216129243374 40.5334382802248 1031.292884491384 122.76103743165731 172.3224871084094 53.382710907608271 1664.397504825145 144.43329605460167 175.79746772348881 27.699805114418268 9.648929722607134 1282.1448069512844 4158.1338787078857 73.773915328085423 455.06389178335667 99.491654619574547 258.13279632478952 915.52172186225653 334.14289012551308 701.93767882883549 192.66973273456097 108.24895767495036
leaf_count=933 2823 1385 2852 7527 14257 8149 181 2012 448 174 10205 1197 408 687 22494 525 1104 369 41 10732 5058 356 1647 496 1872 3036 1686 7848 1875 1671
internal_value=0.0996382 0.110947 0.114803 0.11103 0.106137 0.0440383 0.0661216 0.109535 0.0913256 0.11278 0.0541406 0.048921 0.0837699 0.105834 0.0289125 0.0772592 0.125476 -0.00298667 0.12468 0.0708856 0.113225 0.116878 0.0891115 0.0686153 0.0369309 0.0823567 0.0538997 0.0357433 0.0269752 0.069878
internal_weight=32266.3 26811.9 24456.1 20617.6 16519.9 5454.43 2215.9 15013.7 2274.94 12738.8 1643.04 1555.56 524.264 401.503 3238.53 1469.83 348.12 571.281 37.3487 2355.76 12698.2 805.107 1073.61 618.548 357.624 1394.1 478.576 2667.25 1965.32 300.919
internal_count=114048 54996 39316 37931 35079 59052 16605 27552 8063 19489 13782 13601 3396 2199 42447 5695 1512 8559 410 15680 19315 2368 4948 3301 2368 5247 2211 33888 26040 3546
is_linear=0
shrinkage=0.05


Tree=8
num_leaves=31
num_cat=0
split_feature=0 25 0 25 0 13 25 25 0 25 1 25 0 11 12 12 4 5 12 83 19 13 0 0 0 26 1 4 14 27
split_gain=6800.52 1292.65 712.063 702.364 732.384 358.041 307.979 337.159 292.146 329.221 291.616 269.896 294.037 245.422 248.086 241.789 237.154 334.036 232.535 226.013 216.916 216.612 236.399 216.375 213.595 353.018 212.373 209.448 208.055 209.512
threshold=57661.500000000007 1.0000000180025095e-35 77961.000000000015 3.5000000000000004 31515.000000000004 -0.87837970256805409 1.0000000180025095e-35 3.5000000000000004 12720.500000000002 4.5000000000000009 146751.50000000003 4.5000000000000009 52521.500000000007 0.78656607866287243 0.98296290636062633 -0.7865660786628722 511056.50000000006 80024.500000000015 -0.91597560048103321 2401.503540039063 1.0000000180025095e-35 0.6078576147556306 18003.500000000004 21219.500000000004 77429.500000000015 2.8333333730697636 107896.50000000001 343775.00000000006 -0.56174489110708226 2208.333374023438
decision_type=2 2 2 2 2 2 2 2 2 2 2 2 2 2 2 2 2 2 2 2 2 2 2 2 2 2 2 2 2 2
left_child=1 13 5 -3 8 -2 18 -8 -5 21 20 12 27 14 16 19 17 -1 -7 -4 -11 -10 -23 -22 -20 -26 -17 -6 29 -15
right_child=2 3 15 4 11 6 7 -9 9 10 -12 -13 -14 28 -16 26 -18 -19 24 -21 23 22 -24 -25 25 -27 -28 -29 -30 -31
leaf_value=0.099074756898347799 0.092160293353783146 0.12392642041170904 -0.012632269939931258 0.11900317715360925 0.050866435446566285 0.086517216575676625 0.11209506244141826 0.05088068065160474 0.079638236074211791 0.11023656698400273 -0.066438107744325833 0.092327267569461025 -0.019985072666835444 0.0070489287089272948 -0.013619700158327927 0.047208788312471182 0.046197384372744843 0.036159489582159685 0.0037602932829021727 0.098269292544090725 0.052193041131203023 0.11177369236011436 -0.061284749396270079 0.098581447084645585 0.38062012480551966 -0.048587966890090359 0.019378950885889958 0.10234045628146785 0.0051666478881808578 0.12195399079162904
leaf_weight=1141.4744629636407 702.25941282510757 3908.6451133042574 520.21799816936255 4271.4420793652534 465.57270514965057 118.14964759349823 291.64884626865387 992.54980279877782 536.5374985486269 6528.7257335782051 23.930675357580185 7399.7996116541326 94.550747416913509 66.124509781599045 78.232114933431149 1336.3246433511376 469.80071453005075 260.65877141058445 539.57391088083386 49.382209852337837 315.46580040454865 28.263308510184288 59.602063789963722 1314.8381304740906 8.9147798120975512 8.8812079280614835 1411.3812326863408 347.92675571888685 273.78684608638287 98.647816531360149
leaf_count=6011 3147 1344 8032 2852 2714 848 282 7488 1485 6767 120 17231 897 536 669 15369 2999 1771 6479 527 759 66 381 2025 39 128 18519 1661 2371 531
internal_value=0.0906174 0.101062 0.0422514 0.104384 0.100807 0.0615118 0.0504875 0.0648592 0.108197 0.102943 0.10562 0.0891613 0.0632887 0.0658518 0.0734548 0.026782 0.0770991 0.0874128 0.0231107 -0.00286215 0.106133 0.067741 -0.00498635 0.0896427 0.00953915 0.175232 0.032926 0.0729801 0.0319532 0.0761623
internal_weight=33663.3 27684 5979.28 25295.3 21386.7 2661.98 1959.72 1284.2 13078.8 8807.36 8182.96 8307.85 908.05 2388.73 1950.17 3317.31 1871.93 1402.13 675.52 569.6 8159.03 624.403 87.8654 1630.3 557.37 17.796 2747.71 813.499 438.559 164.772
internal_count=114048 53190 60858 38302 36958 18411 15264 7770 14455 11603 9671 22503 5272 14888 11450 42447 10781 7782 7494 8559 9551 1932 447 2784 6646 167 33888 4375 3438 1067
is_linear=0
shrinkage=0.05


Tree=9
num_leaves=31
num_cat=0
split_feature=0 25 25 0 0 13 4 12 25 0 25 1 25 25 64 68 11 27 82 37 26 67 11 27 12 39 13 4 69 4
split_gain=5816.42 1182.19 672.734 676.404 626.867 344.132 295.323 289.412 267.277 265.953 285.845 251.305 245.101 218.841 220.623 216.476 210.689 254.684 224.436 325.817 314.701 218.532 208.839 204.052 202.573 201.798 200.681 273.742 275.395 200.577
threshold=57222.000000000007 1.0000000180025095e-35 3.5000000000000004 31515.000000000004 77961.000000000015 -0.87837970256805409 15981.500000000002 -0.91597560048103321 1.0000000180025095e-35 12720.500000000002 4.5000000000000009 146751.50000000003 3.5000000000000004 4.5000000000000009 3825.0000000000005 925.00000000000011 -0.7865660786628722 7008.3332519531259 4406.0000000000009 5975.0000000000009 2.5833333730697636 1080.277770996094 0.78656607866287243 25083.666992187504 0.98296290636062633 2901.9230957031255 -0.60785761475563038 163683.00000000003 575.04824829101574 39091.000000000007
decision_type=2 2 2 2 2 2 2 2 2 2 2 2 2 2 2 2 2 2 2 2 2 2 2 2 2 2 2 2 2 2
left_child=1 22 -3 9 5 -2 -7 23 -9 -4 -11 -12 -10 14 -5 -14 29 18 21 -20 -21 -18 24 -8 26 -23 27 28 -1 -6
right_child=4 2 3 13 16 6 7 8 12 10 11 -13 15 -15 -16 -17 17 -19 19 20 -22 25 -24 -25 -26 -27 -28 -29 -30 -31
leaf_value=-0.028361643963958717 0.084989753378402352 0.11477797459958559 0.10950715020290842 0.036467066227798335 0.14917004798745312 0.12691175576885702 0.047917976689751861 0.004481325345649676 0.1010975488252096 0.062180966090141537 0.097340509103130676 -0.06517620304298756 0.09358476930423576 0.084185594190676408 0.085252415365950074 0.025373780037499613 0.01368075510174022 0.0063770734874669891 -0.029847925241509102 -0.049462062246531956 0.32303554343744367 0.083509133792600818 0.028448905564904092 0.12212843400525371 -0.0129345250398759 -0.052409632581967215 0.079065158890935197 0.021080149116385297 0.14476030934790882 0.040624309568227199
leaf_weight=29.423924744129181 779.4185436591506 3967.2014945447445 4406.0712140649557 517.06708009541035 44.142467994242907 106.26009876281023 211.39068578928709 561.76171534508467 175.13421034812927 645.5370025485754 8443.4269700795412 23.211905300617218 137.72419004887342 7687.455613784492 423.04379640519619 730.07082938402891 224.51699869334698 1687.6668138541281 175.76598932221532 9.2808227054774779 12.684673696756361 406.37107584998012 444.961689427495 167.0412071980536 77.170212179422379 28.615013740956783 1440.6382405906916 382.09827513992786 99.210303880274296 802.91851471364498
leaf_count=238 3222 1334 2852 3143 197 164 1239 6716 202 1932 9551 120 736 17074 2041 5962 2790 22750 2443 130 79 4502 3411 620 666 408 7469 2532 377 9148
internal_value=0.0830803 0.0926403 0.0957715 0.0923616 0.0394219 0.0566246 0.0460077 0.0416109 0.0322983 0.0993557 0.0944357 0.0968873 0.047263 0.0813925 0.0584874 0.0362945 0.0248602 0.0176586 0.0398357 -0.0068634 0.170348 0.0538261 0.0595589 0.0809103 0.0663656 0.0744682 0.0695066 0.0424428 0.105247 0.0464501
internal_weight=34847.3 28586.5 26113 22145.8 6260.76 2868.8 2089.38 1983.12 1604.69 13518.2 9112.18 8466.64 1042.93 8627.57 940.111 867.795 3391.96 2544.9 857.235 197.731 21.9655 659.503 2473.5 378.432 2028.54 434.986 1951.37 510.733 128.634 847.061
internal_count=114048 52740 38047 36713 61308 18861 15639 15475 13616 14455 11603 9671 6900 22258 5184 6698 42447 33102 10352 2652 209 7700 14693 1859 11282 4910 10616 3147 615 9345
is_linear=0
shrinkage=0.05


Tree=10
num_leaves=31
num_cat=0
split_feature=0 25 25 0 0 1 1 25 25 25 0 0 25 13 5 30 1 1 83 87 82 28 88 19 25 0 75 69 63 27
split_gain=5054.03 1092.78 672.135 659.265 548.365 427.16 399.678 489.783 643.703 342.958 436.419 248.915 254.329 237.621 301.137 219.023 218.856 196.981 195.964 234.988 234.996 370.758 241.855 194.482 194.016 197.631 192.335 192.099 221.642 287.373
threshold=57222.000000000007 1.0000000180025095e-35 3.5000000000000004 31515.000000000004 99506.000000000015 42667.500000000007 41430.500000000007 1.0000000180025095e-35 3.5000000000000004 4.5000000000000009 98205.000000000015 12720.500000000002 4.5000000000000009 -0.60785761475563038 15683.500000000002 0.65959942340850841 146751.50000000003 146751.50000000003 2604.1166992187505 0.078461539000272765 9207.5000000000018 -0.101020410656929 2.5000000000000004 1.0000000180025095e-35 4.5000000000000009 52521.500000000007 3.5000000000000004 347.24311828613287 4925.0000000000009 4058.333374023438
decision_type=2 2 2 2 2 2 2 2 2 2 2 2 2 2 2 2 2 2 2 2 2 2 2 2 2 2 2 2 2 2
left_child=1 26 -3 11 6 13 -2 15 -9 10 17 -4 -13 14 -6 -8 23 -10 27 20 -20 -22 -23 -14 25 -5 -1 28 -7 -30
right_child=4 2 3 24 5 18 7 8 9 -11 -12 12 16 -15 -16 -17 -18 -19 19 -21 21 22 -24 -25 -26 -27 -28 -29 29 -31
leaf_value=0.049970580688631215 0.011447671830673462 0.10728708543294643 0.10163807526941138 0.060429927437568531 0.011927509776015446 0.021198953372998455 0.036166951472297419 0.11527313579563513 0.0059203879734427466 0.067404394761856654 0.20943469598006864 0.057281518673330568 0.09370398454950854 0.0033071524498416993 0.15904619961713753 -0.027165536881120941 -0.064007596434558306 0.20127072811132207 0.0066006669927598308 -0.051940262724173902 0.39160775763614775 -0.050822684973321701 0.22769532855230273 0.074864412780091968 0.077068067974455534 -0.017758480213831539 0.097990440383514607 -0.0084417526654127981 0.38501944201364047 0.017010894345568971
leaf_weight=2345.2862067744136 690.14877161383629 4030.2582165151834 4507.0926107466221 889.63277146220207 51.136315643787384 497.90700463578105 1207.6915957517922 529.22004740685225 536.18558548018336 1236.001177739352 28.078583173453808 665.26264208555222 6934.2045670151711 72.403862562030554 108.92152600735426 153.16191586107016 22.49047015607357 12.225051455199717 27.694483429193497 26.074466444551945 14.413782976567743 15.482649650424719 14.116128768771887 1741.5663560479879 7969.8761300221086 88.446761108934879 229.40434956550598 1180.0144557952881 8.8027576915919798 11.773468203842638
leaf_count=13749 6153 1334 2852 4375 624 6610 12493 522 5330 8012 145 1932 6767 798 621 1839 120 24 356 391 77 226 54 2784 17074 809 944 16840 31 162
internal_value=0.0766687 0.0854398 0.0884252 0.0850892 0.0364719 0.0149619 0.0464005 0.0529108 0.0667738 0.052557 0.0206623 0.0919264 0.0872413 0.0785877 0.11241 0.0290243 0.0895259 0.0106335 0.00668872 0.0751505 0.121443 0.191954 0.0851073 0.0899312 0.0744816 0.0533485 0.0542855 0.00270551 0.028043 0.184997
internal_weight=35845 29423.5 26848.8 22818.6 6421.45 2028.74 4392.71 3702.56 2341.71 1812.49 576.489 13870.6 9363.52 232.462 160.058 1360.85 8698.26 548.411 1796.28 97.7815 71.707 44.0126 29.5988 8675.77 8947.96 978.08 2574.69 1698.5 518.483 20.5762
internal_count=114048 52740 38047 36713 61308 26790 34518 28365 14033 13511 5499 14455 11603 2043 1245 14332 9671 5354 24747 1104 713 357 280 9551 22258 5184 14693 23643 6803 193
is_linear=0
shrinkage=0.05


Tree=11
num_leaves=31
num_cat=0
split_feature=0 25 25 0 0 0 78 12 13 1 25 25 1 80 67 33 63 11 5 25 84 25 0 14 27 4 67 25 26 78
split_gain=4458.1 1203.64 712.873 734.72 368.637 308.018 294.029 270.225 264.973 293.376 236.567 654.022 264.873 224.662 272.504 261.102 321.608 261.608 212.925 211.179 216.705 205.452 200.938 200.685 295.182 198.014 196.301 192.622 230.369 261.35
threshold=61770.000000000007 1.0000000180025095e-35 3.5000000000000004 36652.000000000007 118663.00000000001 12720.500000000002 2325.0000000000005 0.60355338454246532 -0.60785761475563038 110890.00000000001 1.0000000180025095e-35 3.5000000000000004 146751.50000000003 -6724.9999999999991 1651.0869750976565 5.8333332538604745 3125.0000000000005 -0.91597560048103321 12829.000000000002 5.5000000000000009 2.5000000000000004 7.5000000000000009 34572.500000000007 1.0000000180025095e-35 19834.166992187504 19447.500000000004 1641.885925292969 4.5000000000000009 23.583333015441898 20475.000000000004
decision_type=2 2 2 2 2 2 2 2 2 2 2 2 2 2 2 2 2 2 2 2 2 2 2 2 2 2 2 2 2 2
left_child=1 22 -3 5 10 -4 -6 19 -9 -10 13 -12 27 14 15 -2 -17 -18 -5 20 -7 -14 -1 24 -15 -20 -19 28 -13 -30
right_child=4 2 3 18 6 7 -8 8 9 -11 11 12 21 23 -16 16 17 26 25 -21 -22 -23 -24 -25 -26 -27 -28 -29 29 -31
leaf_value=0.062721868395022293 -0.051779414529920145 0.10072191236274836 0.094994827573112506 0.024337140193417761 0.047210594524701228 -0.011067996006635149 -0.0095307180781619982 0.08332682055483788 0.04302117764079131 0.11594377775225365 0.10248219460814958 0.0044349850661886412 0.14872523553704051 0.012542057598447898 0.027629427550103721 0.30036587817314514 0.2351219758818438 -0.028936035282617165 0.1254130827124095 0.08639168687349999 0.070381359054760145 -0.051126642589743511 0.036101614119707109 -0.0053970183461300048 0.078871433963208504 0.064913742766580948 0.31299941392640213 0.04222907911435636 -0.050763874416678761 0.25644546738269647
leaf_weight=1269.6989060342312 16.331738092005253 4218.4212802648544 4579.2158160954714 319.73157598823309 308.63883074745536 86.829935103654861 868.41504130139947 1136.1021721810102 1282.3257333487272 154.14435192942619 432.6281276345253 680.45319608226418 79.291030220687389 591.42745269834995 194.49385563656688 27.85711245983839 19.725121505558491 33.436688147485256 138.52098952233791 8719.4767887741327 1307.9220250397921 14.796305555850266 1618.9635110646486 672.63361860066652 233.41383616253734 6194.2914105206728 3.781801249831914 1440.5908513329923 10.376141581684353 18.206145480275154
leaf_count=4948 209 1421 2852 1358 3737 360 13213 1670 2933 144 682 7207 216 6667 2068 145 120 404 195 9182 2836 210 11623 8150 2122 17727 16 11450 120 63
internal_value=0.0711472 0.0785844 0.081741 0.0783893 0.0302754 0.0838347 0.00537504 0.0797993 0.0652592 0.0509216 0.0368304 0.0462474 0.0353634 0.0227568 0.0625191 0.12869 0.163645 0.092731 0.0642459 0.0834908 0.0653065 0.117089 0.0478201 0.0148706 0.0313847 0.0662567 0.0130889 0.0317336 0.0103799 0.146974
internal_weight=36672.1 31025.6 28137 23918.6 5646.5 17266 1177.05 12686.8 2572.57 1436.47 4469.44 2676.34 2243.71 1793.1 295.626 101.132 84.8007 56.9436 6652.54 10114.2 1394.75 94.0873 2888.66 1497.47 824.841 6332.81 37.2185 2149.63 709.035 28.5823
internal_count=114048 57249 40678 39257 56799 19977 16950 17125 4747 3077 39849 19948 19266 19901 2962 894 685 540 19280 12378 3196 426 16571 16939 8789 17922 420 18840 7390 183
is_linear=0
shrinkage=0.05


Tree=12
num_leaves=31
num_cat=0
split_feature=0 25 0 25 0 25 12 12 12 25 25 25 1 1 0 76 1 25 25 25 28 26 13 37 1 1 1 25 12 11
split_gain=4025.85 776.193 691.968 552.029 484.629 315.236 271.043 244.54 238.311 229.298 696.909 399.927 364.245 281.971 302.48 257.057 217.461 284.448 422.853 289.523 231.118 229.93 213.278 207.394 205.544 266.357 202.916 199.066 197.371 193.807
threshold=50557.000000000007 1.0000000180025095e-35 75388.500000000015 3.5000000000000004 12720.500000000002 4.5000000000000009 -0.91597560048103321 -0.7865660786628722 -0.6035533845424651 7.5000000000000009 8.5000000000000018 6.5000000000000009 40180.000000000007 35069.500000000007 31515.000000000004 7.5000000000000009 41430.500000000007 1.0000000180025095e-35 3.5000000000000004 5.5000000000000009 -0.725705325603485 21.416666984558109 -0.87837970256805409 13375.000000000002 41430.500000000007 42332.500000000007 143785.50000000003 7.5000000000000009 1.0000000180025095e-35 -0.98296290636062611
decision_type=2 2 2 2 2 2 2 2 2 2 2 2 2 2 2 2 2 2 2 2 2 2 2 2 2 2 2 2 2 2
left_child=1 8 6 -3 -5 24 26 -4 -1 11 12 -7 13 14 -11 -12 -8 21 -19 20 -20 29 -14 -9 -6 -26 -2 -21 -24 -18
right_child=2 3 7 4 5 9 16 23 -10 10 15 -13 22 -15 -16 -17 17 18 19 27 -22 -23 28 -25 25 -27 -28 -29 -30 -31
leaf_value=0.068806308937299984 0.078034020882018398 0.095698937174394469 -0.0079393677970732799 0.08929818899753765 0.070865191462453722 0.074025967282777827 0.020832004310827018 0.024988989166829338 0.035480088342102305 0.082370346003187211 0.065635639183279401 0.11075967798701576 0.0025445579667596847 -0.025486228357092029 -0.066639508080690829 0.080802666898688646 0.11008280539797882 0.095353740266627504 0.13595517386815539 0.1020526903994506 0.010176717388858754 0.14673876057747501 0.093427701639168137 0.16362500061706231 -0.031235941351582808 0.045358569055801073 -0.057076084862602641 0.049433841628538394 0.038710592498137852 0.013980862532939398
leaf_weight=844.341477625072 874.67204970866442 3701.7062191814184 627.29763578251004 4626.4907473623753 665.98491410911083 2737.2771424651146 843.6335337087512 3200.7520991712809 1482.307457767427 155.35210818052292 5134.8438990861177 1024.6917920410633 149.24691133201122 324.52120839059353 42.724963508546352 6240.1794506460428 55.207741267979145 591.98832076787949 38.081550046801567 240.49352587014437 561.77721412479877 36.604563847184181 364.98791754245758 26.241830114275217 131.98353005945683 783.27522636950016 28.018117383122444 724.1166483014822 304.06275556981564 796.43953389674425
leaf_count=3347 2823 1205 8985 2852 2062 3989 5034 35548 8476 177 8555 519 435 1196 231 7528 334 281 131 619 3960 163 406 155 724 3099 228 3037 712 7237
internal_value=0.0663134 0.07532 0.0363944 0.0777623 0.0748315 0.0711206 0.0490816 0.0206152 0.0475985 0.07317 0.0699424 0.0840583 0.0358102 0.00318691 0.0500558 0.0739624 0.0433298 0.0495546 0.0593637 0.045693 0.0183746 0.0257008 0.0566154 0.0261667 0.0497305 0.0342913 0.0737819 0.0626447 0.0686554 0.0203324
internal_weight=37359.3 28714 8645.32 26387.3 22685.6 18059.1 4791.03 3854.29 2326.65 16477.9 12715.9 3761.97 1340.9 522.598 198.077 11375 3888.34 3044.71 2156.46 1564.47 599.859 888.252 818.298 3226.99 1581.24 915.259 902.69 964.61 669.051 851.647
internal_count=114048 45513 68535 33690 32485 29633 23847 44688 11823 23748 19240 4508 3157 1604 408 16083 20796 15762 8028 7747 4091 7734 1553 35703 5885 3823 3051 3656 1118 7571
is_linear=0
shrinkage=0.05


Tree=13
num_leaves=31
num_cat=0
split_feature=0 25 0 25 0 12 12 12 25 12 1 12 13 13 11 77 64 1 1 0 27 26 83 82 70 20 30 11 63 78
split_gain=3628.8 740.731 606.691 562.596 490.456 233.045 226.19 213.76 207.802 197.77 196.588 261.381 256.78 217.952 273.142 200.08 186.727 185.462 186.227 183.426 195.094 283.924 340.555 307.221 191.389 189.037 274.396 185.715 181.945 317.414
threshold=50557.000000000007 1.0000000180025095e-35 75388.500000000015 3.5000000000000004 25634.500000000004 0.98296290636062633 -0.91597560048103321 -0.7865660786628722 20.500000000000004 -0.6035533845424651 38278.500000000007 -0.12940952181816107 1.0000000180025095e-35 -0.87837970256805409 -0.98296290636062611 9575.0000000000018 15975.000000000002 107896.50000000001 110890.00000000001 115543.50000000001 3958.333374023438 1.5833333134651186 575.02972412109386 2925.0000000000005 8.5000000000000018 27.500000000000004 0.45202486217021948 0.98296290636062633 525.00000000000011 2625.0000000000005
decision_type=2 2 2 2 2 2 2 2 2 2 2 2 2 2 2 2 2 2 2 2 2 2 2 2 2 2 2 2 2 2
left_child=1 9 6 -3 5 -5 -2 -4 -7 -1 11 12 -8 15 -15 -12 -17 28 -19 24 21 -21 -23 -24 27 -22 -27 -20 -9 -30
right_child=2 3 7 4 -6 8 10 17 -10 -11 13 -13 -14 14 -16 16 -18 18 19 20 25 22 23 -25 -26 26 -28 -29 29 -31
leaf_value=0.062770016967754791 0.06784656002620354 0.09107971483367984 -0.0075953190946790585 0.07884595930420335 0.06339839912247755 -0.049902616757606731 0.078658394470069601 0.0030131038091297242 0.095997079033207713 0.032914384901589794 0.078407606705870631 -0.029142861247290725 -0.059666071882187213 0.092624338908439768 0.032218170088399202 0.0054848235894451088 0.14155524215749504 -0.0355303079637199 0.014274182178124914 -0.022328086052249323 -0.017922842147310922 -0.051201906836450956 0.36709892184940052 0.087708365255650816 0.08922134842476058 -0.048060674915269053 0.35127532786077409 0.10521738562194756 0.086503956612278846 0.030203626418307081
leaf_weight=878.42329717427492 931.73182485997677 3695.1204389035702 623.08251872286201 10272.640371277928 12645.460926100612 65.90973949432373 157.66586205363274 336.47744823619723 37.419211506843567 1517.1033898591995 695.76988939195871 221.98242381215096 41.753235161304474 202.26311428844929 2418.9364668056369 190.96737193316221 28.064111307263374 180.59801949188113 562.69021011888981 54.603935409337282 544.26789179816842 16.789102703332901 17.287843998521566 23.152748059481382 133.45203872770071 8.2351202107965928 7.5485649034380904 61.426981970667839 332.0838238671422 1016.8904921375215
leaf_count=3347 3051 1205 8985 8917 23274 265 603 3756 29 8476 2085 1716 345 801 14232 957 57 2331 6043 786 7821 235 72 239 1004 124 53 408 2786 10045
internal_value=0.0620431 0.0705511 0.0339168 0.0729405 0.0700252 0.0780945 0.0456646 0.0192515 0.00334673 0.0438839 0.0404262 0.00812293 0.0495436 0.0442726 0.0369129 0.0652971 0.0234834 0.0243282 0.012181 0.0182294 -0.000793919 0.0591976 0.13603 0.213121 0.03508 -0.0128575 0.152473 0.023379 0.035918 0.0441172
internal_weight=37919.8 29112.1 8807.72 26716.6 23021.4 10376 4889.13 3918.59 103.329 2395.53 3957.4 421.402 199.419 3536 2621.2 914.801 219.031 3295.5 1610.05 1429.45 671.885 111.834 57.2297 40.4406 757.569 560.052 15.7837 624.117 1685.45 1348.97
internal_count=114048 45513 68535 33690 32485 9211 23847 44688 294 11823 20796 2664 948 18132 15033 3099 1014 35703 19116 16785 9330 1332 546 311 7455 7998 177 6451 16587 12831
is_linear=0
shrinkage=0.05


Tree=14
num_leaves=31
num_cat=0
split_feature=0 25 25 25 25 0 25 0 4 1 0 26 11 1 11 1 69 26 39 79 11 20 69 30 28 0 25 1 82 0
split_gain=3324.35 831.45 1114.74 466.424 455.51 397.976 386.64 349.803 229.049 203.904 238.736 195.014 193.838 188.506 188.301 180.997 180.4 288.764 204.336 254.22 254.476 238.779 192.128 178.639 186.56 167.358 163.44 162.283 193.353 163.422
threshold=43067.000000000007 1.0000000180025095e-35 3.5000000000000004 1.0000000180025095e-35 3.5000000000000004 9256.5000000000018 4.5000000000000009 65015.500000000007 23711.000000000004 35069.500000000007 42715.000000000007 10.166666507720949 -0.37940952181816096 146751.50000000003 1.0000000180025095e-35 31638.000000000004 1937.8112792968752 7.1666667461395273 1767.7083129882815 1625.0000000000002 0.37940952181816107 29471092.000000004 1985.5437011718752 0.49403576552867895 0.23669467866420749 39468.500000000007 7.5000000000000009 42667.500000000007 12325.000000000002 39468.500000000007
decision_type=2 2 2 2 2 2 2 2 2 2 2 2 2 2 2 2 2 2 2 2 2 2 2 2 2 2 2 2 2 2
left_child=3 -2 -3 -1 -5 -6 9 14 -9 12 25 27 -7 16 15 -4 18 -18 19 20 -10 -21 -19 24 -24 -11 -15 28 29 -8
right_child=1 2 7 4 5 6 11 8 13 10 -12 -13 -14 26 -16 -17 17 22 -20 21 -22 -23 23 -25 -26 -27 -28 -29 -30 -31
leaf_value=0.0445817233208411 0.017331306511190258 0.08474226015096005 -0.058377820542546047 0.087741003828936431 0.081909162176651715 0.1189625699050875 0.061677139834750032 0.088327382420775882 0.056914677387642998 0.033215440731262216 0.15095750322434243 0.074264720469859782 -0.0021487180250518985 0.099561685436213659 0.055431918132466042 0.036876370014543317 -0.040477631900260137 0.21728310610622664 -0.012378368971890926 -0.011709598928490094 -0.0010105047259920737 0.25995753286159257 0.13898389806079087 -0.0086520831746045978 -0.019169591158200959 -0.031032830723086657 -0.051290980215623706 0.073184271089657194 -0.035870207407087233 0.035895541588559163
leaf_weight=1943.7957061082125 3844.1637005954981 1483.1518621519208 50.281469337642193 3183.9497703164816 3878.7768137454987 131.71347531676292 7228.3198151290417 123.07121527940035 575.62243199720979 1045.8277352452278 39.263234600424767 5245.9736278504133 43.941379174590111 113.17038529738784 2280.2237955629826 2002.6746340543032 58.131027165800333 23.665499713271856 665.52370401844382 484.54374190419912 282.4458488933742 7.2261496298015109 81.756552051752806 53.035485208034515 23.781886607408524 111.44189369678497 20.662382289767265 2651.3101188838482 52.920675471425056 677.1318711861968
leaf_count=8529 38358 1237 423 1010 2159 87 9738 287 4899 3517 89 5270 129 561 6760 7257 663 98 7257 5310 3209 22 544 527 261 656 327 3050 175 1639
internal_value=0.0581718 0.0365721 0.0454494 0.0681926 0.0700801 0.0674119 0.0641433 0.0369254 0.0220693 0.0386334 0.031197 0.0663484 0.088825 0.0186213 0.0455328 0.0345161 0.015181 0.0560349 0.010283 0.0214569 0.0378688 -0.00719823 0.0868735 0.0661715 0.1035 0.0270071 0.0760639 0.0624276 0.0588352 0.0594737
internal_weight=38407.5 12173.1 8328.97 26234.4 24290.6 21106.6 17227.8 6845.82 2512.64 1372.19 1196.53 15855.7 175.655 2389.57 4333.18 2052.96 2255.73 240.37 2015.36 1349.84 858.068 491.77 182.239 158.574 105.538 1157.27 133.833 10609.7 7958.37 7905.45
internal_count=114048 78000 39642 36048 27519 26509 24350 38405 23965 4478 4262 19872 216 23678 14440 7680 22790 2093 20697 13440 8108 5332 1430 1332 805 4173 888 14602 11552 11377
is_linear=0
shrinkage=0.05


Tree=15
num_leaves=31
num_cat=0
split_feature=0 0 25 25 0 25 4 25 25 27 0 1 0 26 25 25 0 37 68 33 40 83 26 67 11 78 69 0 80 25
split_gain=3053.19 754.207 458.557 464.401 393.262 354.392 330.605 217.267 655.929 212.938 211.038 179.113 190.203 178.288 169.903 345.713 220.347 171.791 196.304 193.226 174.279 248.615 217.718 168.41 166.92 164.249 218.318 208.523 158.444 151.302
threshold=43067.000000000007 72780.000000000015 1.0000000180025095e-35 3.5000000000000004 9256.5000000000018 4.5000000000000009 42559.500000000007 1.0000000180025095e-35 3.5000000000000004 26619.000000000004 65015.500000000007 35069.500000000007 42715.000000000007 10.166666507720949 1.0000000180025095e-35 2.5000000000000004 94703.000000000015 1675.0000000000002 1725.0000000000002 65.833332061767592 5016.5000000000009 1145.0897216796877 3.4166666269302373 2451.666625976563 -0.37940952181816096 17675.000000000004 862.97036743164074 73288.000000000015 6612.0000000000009 7.5000000000000009
decision_type=2 2 2 2 2 2 2 2 2 2 2 2 2 2 2 2 2 2 2 2 2 2 2 2 2 2 2 2 2 2
left_child=2 6 -1 -4 -5 11 -2 9 -9 -8 -10 24 -13 29 17 16 -16 28 19 -19 22 -22 23 -20 -6 -24 -27 -28 -3 -7
right_child=1 14 3 4 5 13 7 8 10 -11 -12 12 -14 -15 15 -17 -18 18 20 -21 21 -23 25 -25 -26 26 27 -29 -30 -31
leaf_value=0.04126027621250121 0.078561472752527298 0.0057637452601855127 0.084169206738873584 0.078014708081490872 0.10999659522193457 0.069863558718437288 0.015506905915438452 0.079773504339834655 0.040252549566125062 0.059268824812241022 0.0037621775295165285 0.025338345565361575 0.13146962842229062 0.07000537116787231 0.13352315336556972 0.022287385181728625 -0.05288060676606017 0.24844717388918475 0.10530162778455712 0.005276085532227367 0.32923821124091068 0.055145995592709253 -0.026614770812603546 -0.052106887658670109 -0.0020448320068561622 0.23148318412538207 0.29962811212099827 -0.052882595319314468 -0.037529804777989145 0.055529156128520198
leaf_weight=1993.9824710935354 616.25827748328447 1296.8467667400837 3153.8852426409721 3869.0322350561619 135.30812101066113 2390.6234614551067 1335.079768948257 1099.7323827445507 4136.1520505174994 350.50099225342274 438.43609350919724 1171.2333034873009 42.873734340071678 5285.8403261005878 109.02231745421886 2121.7801607176661 17.970431789755821 18.75464104488492 78.875498443841934 14.005102254450319 7.9973088987171641 114.77299803495407 275.90272926166654 20.920362614095211 43.916566774249077 14.067182317376135 3.9292586296796825 27.169767215847969 251.44176379218698 8319.5626735687256
leaf_count=8529 1353 15751 1010 2159 87 2653 10303 523 13782 1933 3183 4173 89 5270 143 20961 201 93 707 160 37 1151 3642 279 129 100 4 361 3333 11949
internal_value=0.0547549 0.0342291 0.0643527 0.0662371 0.0635728 0.0603553 0.0433786 0.0404224 0.0451064 0.0246365 0.0367568 0.0361263 0.0291913 0.0624634 0.0175366 0.0271132 0.106939 0.00739262 0.0306688 0.147725 0.0233566 0.0755163 0.00799822 0.0721143 0.0826834 -0.0120926 0.0752727 -0.000397082 -0.0012868 0.058735
internal_weight=38755.9 12349.6 26406.3 24412.3 21258.4 17389.4 7976.16 7359.9 5674.32 1685.58 4574.59 1393.33 1214.11 15996 4373.46 2248.77 126.993 2124.68 576.395 32.7597 543.635 122.77 420.865 99.7959 179.225 321.069 45.1662 31.099 1548.29 10710.2
internal_count=114048 78000 36048 27519 26509 24350 31077 29724 17488 12236 16965 4478 4262 19872 46923 21305 344 25618 6534 253 6281 1188 5093 986 216 4107 465 365 19084 14602
is_linear=0
shrinkage=0.05


Tree=16
num_leaves=31
num_cat=0
split_feature=0 0 25 25 0 25 4 25 25 25 25 1 25 1 25 0 0 28 27 5 84 18 12 25 25 0 37 68 27 78
split_gain=2818.97 669.809 450.126 473.826 392.904 299.647 296.867 208.554 660.945 210.267 325.847 278.535 220.714 266.633 249.064 202.46 199.177 192.472 184.632 179.553 175.714 161.228 156.959 148.426 297.632 185.687 150.072 151.53 149.12 231.694
threshold=43067.000000000007 72780.000000000015 1.0000000180025095e-35 3.5000000000000004 12720.500000000002 4.5000000000000009 19447.500000000004 1.0000000180025095e-35 3.5000000000000004 10.500000000000002 11.500000000000002 31638.000000000004 7.5000000000000009 41430.500000000007 5.5000000000000009 50557.000000000007 47627.000000000007 -0.35653753578662867 26619.000000000004 54449.500000000007 9.5000000000000018 1.0000000180025095e-35 0.37940952181816107 1.0000000180025095e-35 2.5000000000000004 94703.000000000015 1675.0000000000002 1725.0000000000002 7008.3332519531259 17675.000000000004
decision_type=2 2 2 2 2 2 2 2 2 2 2 2 2 2 2 2 2 2 2 2 2 2 2 2 2 2 2 2 2 2
left_child=2 6 -1 -4 -5 -6 22 18 -9 12 11 -11 14 -14 15 16 -10 19 -8 -17 -7 -12 -2 26 25 -25 -3 -28 -29 -30
right_child=1 23 3 4 5 20 7 8 9 10 21 -13 13 -15 -16 17 -18 -19 -20 -21 -22 -23 -24 24 -26 -27 27 28 29 -31
leaf_value=0.038282983055151036 0.10016683503783604 -0.0012300051203247334 0.081005782204569055 0.073005873606149463 0.033996584784360288 0.054311294839818586 0.014929251238385481 0.076864676785600966 0.019114371197552972 -0.033494176379386641 0.042525403595773559 0.12391992165544788 -0.027721437275993022 0.025959551859880581 0.062519632007000156 0.081173823585519542 0.076816707706346229 -0.0058181829530637138 0.054680849797296295 -0.020284335778055003 0.065369885203672998 -0.068576408445142095 0.0099861892605165991 0.12101738014678472 0.020808032125862536 -0.052480532623794152 0.12547715905177584 0.066401282075623985 -0.010231778396450869 0.088960787146902948
leaf_weight=2040.4291659370065 295.26754873991013 1546.7474392950535 3114.2223708629608 4630.8959334492683 1361.5486620515585 9534.0721824765205 1378.2966956421733 1162.2836059778929 313.22571685910225 32.042521603405476 1459.283184543252 207.72844260931015 343.41592210531235 703.67289739847183 636.5481545701623 141.78723792731762 286.76829306781292 602.12355413287878 370.14301285892725 62.287786982953548 5834.6178354918957 32.536999464035034 57.919063054025173 114.2318514585495 2158.0978020317852 17.22846270725131 36.672318153083324 138.79779647290707 344.84722826257348 69.953539647161961
leaf_count=8529 331 19084 1010 2852 4375 13232 10492 545 1213 223 4245 274 1719 2407 1506 612 749 3979 1956 406 6050 169 251 143 20961 201 253 1265 4388 628
internal_value=0.0516479 0.0320815 0.060879 0.0627612 0.0600976 0.0565205 0.0406412 0.0385838 0.0430243 0.0348522 0.0488045 0.102832 0.0270199 0.00834403 0.0365842 0.0248078 0.0467752 0.00842141 0.0233711 0.0502589 0.0585136 0.0400579 0.0854481 0.0164412 0.0252842 0.0980552 0.00695947 0.028385 0.0217386 0.00667014
internal_weight=39027.7 12511.9 26515.8 24475.4 21361.1 16730.2 8085.33 7732.14 5983.7 4821.42 1731.59 239.771 3089.83 1047.09 2042.74 1406.19 599.994 806.199 1748.44 204.075 15368.7 1491.82 353.187 4426.58 2289.56 131.46 2137.02 590.271 553.599 414.801
internal_count=114048 78000 36048 27519 26509 23657 31077 30495 18047 17502 4911 497 12591 4126 8465 6959 1962 4997 12448 1018 19282 4414 582 46923 21305 344 25618 6534 6281 5016
is_linear=0
shrinkage=0.05


Tree=17
num_leaves=31
num_cat=0
split_feature=0 0 25 25 0 25 4 25 25 25 25 1 12 1 25 1 25 14 11 12 82 14 82 25 25 11 11 1 11 14
split_gain=2625.44 661.639 403.844 443.938 361.715 293.759 261.889 228.713 660.846 206.196 256.495 273.865 176.227 311.593 244.404 270.245 303.948 223.25 199.543 173.536 179.318 205 177.835 173 246.593 202.691 206.451 314.106 209.351 189.139
threshold=41244.000000000007 72780.000000000015 1.0000000180025095e-35 3.5000000000000004 9256.5000000000018 4.5000000000000009 19447.500000000004 1.0000000180025095e-35 3.5000000000000004 10.500000000000002 11.500000000000002 31638.000000000004 0.60355338454246532 123574.50000000001 7.5000000000000009 31638.000000000004 8.5000000000000018 1.0000000180025095e-35 -0.6035533845424651 1.0000000180025095e-35 3306.5000000000005 -0.56174489110708226 2225.0000000000005 7.5000000000000009 5.5000000000000009 0.12940952181816109 0.60355338454246532 42667.500000000007 0.78656607866287243 -0.56174489110708226
decision_type=2 2 2 2 2 2 2 2 2 2 2 2 2 2 2 2 2 2 2 2 2 2 2 2 2 2 2 2 2 2
left_child=2 6 -1 -4 -5 -6 -2 -8 -9 23 11 -11 13 -7 -14 18 -17 -15 -16 22 21 -21 -12 24 25 -10 -27 28 -28 -30
right_child=1 -3 3 4 5 12 7 8 9 10 19 -13 14 17 15 16 -18 -19 -20 20 -22 -23 -24 -25 -26 26 27 -29 29 -31
leaf_value=0.036487773726645925 0.079457975785629562 0.01543545755250913 0.078352584590979671 0.071458551960664321 0.031813833591575823 0.060067191471892205 0.021666649621890251 0.073877247303154703 0.0064905579449564821 -0.036767837593311738 -0.031020471238772315 0.109982897426843 0.068834096376456461 -0.080116011863005362 0.061995472379452091 -0.0027218306159078405 0.049163948548307128 0.043337079034188257 -0.072907473241146339 -0.041717238953373176 -0.0083725944698278525 0.055473368255025114 0.056145454936954664 0.011530098925240578 0.058495542540397995 0.06848153782108847 -0.042871650428756736 -0.032057010777344831 -0.032617647496495476 0.11039495859329373
leaf_weight=1957.7699575945735 380.30488370358944 4476.0491601862013 2940.5711879432201 3817.5988558679819 1332.7997300475836 11855.835726857185 1895.8864598795772 1271.2803312838078 832.02568764984608 36.075143061578274 61.165114544332027 242.39571946114302 884.58251328766346 66.759492248296738 38.396153345704079 327.08592659235001 2053.713242277503 78.744526356458664 89.726634308695793 62.761672742664814 310.38243860006332 371.1996735855937 1107.5042010843754 1242.358196169138 738.95202698558569 375.48141697049141 39.332417823374271 177.85864892601967 27.625024795532227 129.38042095303535
leaf_count=7780 638 46923 961 2159 4064 12753 13160 593 4305 250 253 299 916 255 45 881 3039 114 375 297 1238 910 2447 4562 1637 1220 226 1234 165 349
internal_value=0.0488187 0.0312356 0.0583386 0.0601584 0.0575507 0.0543725 0.038836 0.0370957 0.0412556 0.0340372 0.04611 0.0909082 0.0563233 0.0591746 0.046225 0.0382293 0.0420375 -0.0134653 -0.0323124 0.0395448 0.0206349 0.0413536 0.0515608 0.0266008 0.0346604 0.023495 0.0423336 0.0159833 0.059444 0.0851848
internal_weight=39221.6 13778 25443.6 23485.8 20545.2 16727.6 9301.97 8921.66 7025.78 5754.5 2191.48 278.471 15394.8 12001.3 3393.5 2508.92 2380.8 145.504 128.123 1913.01 744.344 433.961 1168.67 3563.01 2320.66 1581.7 749.678 374.197 196.338 157.005
internal_count=114048 80706 33342 25562 24601 22442 33783 33145 19985 19392 5694 549 18378 13122 5256 4340 3920 369 420 5145 2445 1207 2700 13698 9136 7499 3194 1974 740 514
is_linear=0
shrinkage=0.05


Tree=18
num_leaves=31
num_cat=0
split_feature=0 25 25 25 25 0 25 25 4 1 12 1 25 1 25 14 76 0 0 0 11 18 75 11 13 11 39 4 0 28
split_gain=2446.24 610.518 915.966 397.473 452.166 359.256 285.792 274.884 236.463 171.537 163.074 280.412 218.701 242.611 271.434 202.83 186.277 151.331 196.782 151.007 258.51 199.25 150.249 147.519 207.302 147.311 145.338 159.415 160.222 156.135
threshold=41244.000000000007 1.0000000180025095e-35 3.5000000000000004 1.0000000180025095e-35 3.5000000000000004 9256.5000000000018 4.5000000000000009 4.5000000000000009 12473.500000000002 35069.500000000007 0.60355338454246532 123574.50000000001 7.5000000000000009 31638.000000000004 8.5000000000000018 1.0000000180025095e-35 11.500000000000002 118663.00000000001 117658.00000000001 52521.500000000007 0.12940952181816109 1.0000000180025095e-35 3.5000000000000004 0.37940952181816107 0.6078576147556306 -0.37940952181816096 2301.666625976563 500413.50000000006 40621.500000000007 -0.74823942780494679
decision_type=2 2 2 2 2 2 2 2 2 2 2 2 2 2 2 2 2 2 2 2 2 2 2 2 2 2 2 2 2 2
left_child=3 -2 -3 22 -5 -6 19 9 -8 25 11 -9 -12 16 -15 -13 -14 18 -10 20 21 -4 26 24 -22 -7 27 -1 -29 -28
right_child=1 2 6 4 5 7 8 10 17 -11 12 15 13 14 -16 -17 -18 -19 -20 -21 23 -23 -24 -25 -26 -27 29 28 -30 -31
leaf_value=0.044715336440635967 0.013353037888747877 0.071138844487050823 -0.021675608613914571 0.075811609224938029 0.068603448023589281 0.10031035587401078 0.096469567317140417 0.056995324263619598 0.033850977924013308 0.022770472971358747 0.065045414235251051 -0.076728087006502591 -0.064275991834575483 -0.0025876239538407775 0.046437300385489676 0.04112537263336407 0.077425154837555313 -0.010330640868469859 0.15129045801393062 0.0034085552214809418 0.14010256449924421 0.096156518313917069 0.075794663677210009 0.040031628450419354 -0.060892227181392602 -0.0045142689140956543 0.18762034548447173 -0.0027307300394065568 0.13693759281409376 -0.0091529816847775863
leaf_weight=1155.7015293315053 4171.2011257335544 1573.8167362511158 223.74018512666225 2888.5196674317122 3778.6696825027466 137.38335329294205 150.39636138081551 11869.68383538723 5861.2190035171807 1168.1523614823818 889.2276436239481 66.277741372585297 97.375778764486313 326.9043312817812 2065.3265577107668 78.880302920937538 29.42896868288517 193.37696904689074 34.975672889500856 1343.3662361800671 90.343814417719841 41.692576706409454 193.45923569053411 219.94698239862919 14.344290032982824 44.117012575268745 9.4431241974234563 326.08145807683468 20.911149106919765 289.93866344541311
leaf_count=4197 39107 1286 1163 961 2159 78 126 12753 22178 3860 916 255 396 881 3039 114 24 2552 92 13019 145 108 490 849 81 126 12 1556 69 1456
internal_value=0.0462207 0.0293653 0.0362155 0.0554425 0.0572672 0.0546572 0.029483 0.0515114 0.0346872 0.0298373 0.0534061 0.0561506 0.0437174 0.0361657 0.0397396 -0.0128422 -0.0310414 0.0331458 0.0345732 0.0126777 0.0337386 -0.00287581 0.0339914 0.0635927 0.112247 0.0749457 0.0294641 0.0357982 0.00605556 -0.0023424
internal_weight=39353.9 13918.4 9747.22 25435.5 23439.9 20551.4 8173.4 16772.8 6239.97 1349.65 15423.1 12014.8 3408.26 2519.04 2392.23 145.158 126.805 6089.57 5896.19 1933.43 590.068 265.433 1995.54 324.635 104.688 181.5 1802.08 1502.69 346.993 299.382
internal_count=114048 80706 41599 33342 25562 24601 40313 22442 24948 4064 18378 13122 5256 4340 3920 369 420 24822 22270 15365 2346 1271 7780 1075 226 204 7290 5822 1625 1468
is_linear=0
shrinkage=0.05


Tree=19
num_leaves=31
num_cat=0
split_feature=0 0 25 25 0 25 1 4 1 13 11 25 25 25 12 14 25 1 4 0 79 11 41 11 25 12 1 76 12 26
split_gain=2286.88 565.326 390.011 459.497 356.562 231.308 204.833 202.609 186.302 282.441 186.121 185.398 165.28 299.674 208.499 264.126 309.703 288.81 272.234 234.037 216.224 202.479 200.57 186.862 182.302 251.413 189.276 176.523 167.42 162.983
threshold=41244.000000000007 68590.500000000015 1.0000000180025095e-35 3.5000000000000004 12720.500000000002 4.5000000000000009 146751.50000000003 19447.500000000004 110890.00000000001 1.0000000180025095e-35 -1.0000000180025095e-35 8.5000000000000018 1.0000000180025095e-35 3.5000000000000004 1.0000000180025095e-35 1.0000000180025095e-35 19.500000000000004 40180.000000000007 183079.00000000003 51756.000000000007 -7174.9999999999991 0.60355338454246532 29.035945892333988 -0.91597560048103321 10.500000000000002 -0.6035533845424651 45296.000000000007 7.5000000000000009 -0.91597560048103321 17.416666984558109
decision_type=2 2 2 2 2 2 2 2 2 2 2 2 2 2 2 2 2 2 2 2 2 2 2 2 2 2 2 2 2 2
left_child=2 7 -1 -4 -5 -6 -7 -2 12 11 -11 -10 21 -14 24 16 17 -16 19 -17 -19 22 23 -9 25 28 27 -26 -15 -27
right_child=1 -3 3 4 5 6 -8 8 9 10 -12 -13 13 14 15 18 -18 20 -20 -21 -22 -23 -24 -25 26 29 -28 -29 -30 -31
leaf_value=0.031736407713715171 0.071985425007944831 0.014485536217042983 0.073516125721588374 0.064440843487234431 0.028330888021758417 0.050611169792984634 -0.058905173932612902 0.15893350506997378 0.063802701332340714 0.035450043956066338 -0.047772113697593807 -0.026572846515460331 0.064985266130127325 0.02930385730416854 -0.053510298496036814 0.076683187873395064 0.083493231692252534 0.063034990622664724 0.011871600038242267 -0.031403405498740163 -0.0053695201926434628 -0.020498840394570162 0.007409353854883372 0.042442588102426737 0.010087649571671601 0.054580947430246919 0.087945416049204875 0.055049372592315897 -0.014211467877426793 -0.047573613473311287
leaf_weight=2029.4623856395483 360.6690092086792 5167.2378095723689 2831.255483686924 4507.8457271456718 1309.9619582593441 14661.377211123705 42.032373085618019 38.114858523011208 1204.5821779742837 179.49914476275444 106.02106488496065 59.028149776160717 678.86327174305916 471.2341777831316 257.09298352152109 414.92330476641655 100.97423721849918 142.49102153629065 547.20922141522169 56.386566355824471 592.0938513353467 321.10482430458069 568.06293804943562 302.91679938137531 308.41386087983847 677.9711836129427 284.93760853260756 750.47614787518978 414.67825288325548 40.683540180325508
leaf_count=7780 601 50508 961 2852 3961 17623 165 125 3288 795 738 270 375 1461 1451 714 169 349 2159 385 2490 2642 3540 1955 940 1919 349 1484 1786 213
internal_value=0.0438292 0.0276384 0.0527873 0.0546153 0.0520041 0.0484993 0.0502941 0.0352909 0.0337289 0.0494219 0.00448862 0.0595632 0.0302337 0.0337993 0.0296029 0.0175952 0.000515568 -0.00800895 0.0358996 0.0637128 0.00796689 0.0135878 0.025637 0.0558886 0.038192 0.026786 0.0517809 0.0419756 0.00894213 0.0487398
internal_weight=39427.6 14045.7 25381.9 23352.5 20521.2 16013.4 14703.4 8878.43 8517.76 1549.13 285.52 1263.61 6968.63 5738.43 5059.57 2111.17 1092.65 991.678 1018.52 471.31 734.585 1230.2 909.095 341.032 2948.39 1604.57 1343.83 1058.89 885.912 718.655
internal_count=114048 80706 33342 25562 24601 21749 17788 30198 29597 5091 1533 3558 24506 16244 15869 7717 4459 4290 3258 1099 2839 8262 5620 2080 8152 5379 2773 2424 3247 2132
is_linear=0
shrinkage=0.05


Tree=20
num_leaves=31
num_cat=0
split_feature=0 25 25 25 25 0 25 25 4 12 1 25 1 25 14 11 1 5 26 62 11 0 0 1 12 39 4 14 64 32
split_gain=2141.07 520.343 851.114 381.654 467.57 357.676 241.839 241.47 201.831 157.135 246.619 200.391 217.055 243.092 189.476 169.297 154.91 148.639 131.418 140.583 130.92 127.491 158.092 128.367 193.529 126.712 167.688 136.523 129.191 143.365
threshold=41244.000000000007 1.0000000180025095e-35 3.5000000000000004 1.0000000180025095e-35 3.5000000000000004 9256.5000000000018 4.5000000000000009 4.5000000000000009 12473.500000000002 0.60355338454246532 123574.50000000001 7.5000000000000009 31638.000000000004 8.5000000000000018 1.0000000180025095e-35 -0.6035533845424651 35069.500000000007 54449.500000000007 28.416666984558109 6.5000000000000009 -0.37940952181816096 118663.00000000001 117658.00000000001 31638.000000000004 -0.7865660786628722 2337.9807128906255 507354.00000000006 -0.56174489110708226 6125.0000000000009 102.50000000000001
decision_type=2 2 2 2 2 2 2 2 2 2 2 2 2 2 2 2 2 2 2 2 2 2 2 2 2 2 2 2 2 2
left_child=3 18 -3 25 -5 -6 16 -4 -9 10 17 -11 15 -14 -12 -13 20 -8 -2 -20 -7 22 23 24 -10 26 28 -28 29 -1
right_child=1 2 7 4 5 6 9 8 21 11 14 12 13 -15 -16 -17 -18 -19 19 -21 -22 -23 -24 -25 -26 -27 27 -29 -30 -31
leaf_value=0.038326834647468194 0.010623811199523004 0.066498249987527472 0.010732055668443291 0.07143071073317335 0.063645960268291987 0.09275367546577297 0.050118010969583418 0.087205943110144554 0.056541395912377293 0.059139497874737136 -0.075716623831601618 0.054154618002121672 -0.0049491095746679757 0.041230710367159328 0.038451157116470597 -0.07015974743589419 0.019702938277004763 0.071610501995401601 0.19399979128115893 -0.0040655591471778314 -0.005711669713959572 -0.010501261305477492 0.13065420861613627 0.03137528426443828 -0.042512377373792459 0.001289503263963509 0.061842048254735341 -0.009517657312054506 0.066533209518234507 -0.038933369793501968
leaf_weight=860.7131058126688 4236.8524159863591 1537.7975445836782 1973.6639396250248 2769.8047175556421 3682.8820237368345 138.82842290401459 10967.276799499989 153.73744350671768 74.800460338592529 891.82776160538197 66.076169848442078 38.705684766173363 329.93068562448025 2081.0912966281176 78.385195821523666 87.963923543691635 1193.5335010588169 873.86462371051311 19.203636549413204 16.024371042847633 44.355265393853188 194.05100684985518 38.332415316253901 5781.254214849323 140.15798133611679 330.51719523221254 84.886724457144737 304.36113031208515 417.66478804498911 63.751607984304428
leaf_count=3080 38911 1286 15365 961 2159 78 12187 126 180 916 255 45 881 3039 114 375 3860 566 47 149 126 2552 92 20972 1026 1541 254 1484 1083 338
internal_value=0.0415916 0.0260242 0.0323209 0.0503044 0.0521339 0.0495201 0.0464184 0.0260239 0.0307503 0.0482125 0.0509178 0.0387458 0.0315583 0.0349119 -0.0139304 -0.0320471 0.026309 0.05171 0.0114373 0.106279 0.0690102 0.0293431 0.0306259 0.0299647 -0.00794179 0.0296639 0.0350766 0.00616298 0.0434514 0.0329626
internal_weight=39472.3 14165.9 9893.8 25306.4 23244.5 20474.7 16791.8 8356 6382.33 15415.1 11985.6 3429.52 2537.69 2411.02 144.461 126.67 1376.72 11841.1 4272.08 35.228 183.184 6228.6 6034.55 5996.21 214.958 2061.89 1731.38 389.248 1342.13 924.465
internal_count=114048 80706 41599 33342 25562 24601 22442 40313 24948 18378 13122 5256 4340 3920 369 420 4064 12753 39107 196 204 24822 22270 22178 1206 7780 6239 1738 4501 3418
is_linear=0
shrinkage=0.05


Tree=21
num_leaves=31
num_cat=0
split_feature=0 25 25 25 25 25 0 19 4 0 4 1 11 13 0 1 25 13 1 25 25 14 1 0 25 1 68 32 4 79
split_gain=2035.19 650.225 912.361 324.605 263.686 355.412 276.162 238.05 163.724 170.579 175.081 144.323 168.679 172.839 133.928 131.955 130.225 220.155 243.913 178.361 259.363 184.45 297.814 156.063 155.251 147.223 129.921 128.673 125.379 136.787
threshold=36086.500000000007 1.0000000180025095e-35 3.5000000000000004 4.5000000000000009 1.0000000180025095e-35 3.5000000000000004 9256.5000000000018 1.0000000180025095e-35 12473.500000000002 65015.500000000007 181006.50000000003 45296.000000000007 0.91597560048103344 -0.87837970256805409 20076.500000000004 98159.500000000015 5.5000000000000009 0.6078576147556306 143785.50000000003 7.5000000000000009 9.5000000000000018 1.0000000180025095e-35 39213.500000000007 12720.500000000002 12.500000000000002 35069.500000000007 7021.0000000000009 45.833333969116218 355524.00000000006 -1324.9999999999998
decision_type=2 2 2 2 2 2 2 2 2 2 2 2 2 2 2 2 2 2 2 2 2 2 2 2 2 2 2 2 2 2
left_child=4 -2 -3 26 14 -6 -7 16 -5 11 -11 -10 -13 15 -1 -14 17 -8 -19 -18 21 22 23 -21 -22 -25 27 -4 -29 -30
right_child=1 2 3 8 5 6 7 -9 9 10 -12 12 13 -15 -16 -17 19 18 -20 20 24 -23 -24 25 -26 -27 -28 28 29 -31
leaf_value=-0.0062611387798735488 0.011210101793822334 0.064530269096206599 -0.0021395736551454662 0.080717280144713022 0.070101982113388958 0.061418371183869003 0.044184891601546553 0.033855941473022746 0.029713652660772229 -0.015795453996805663 0.024447841281700716 0.049421923710024712 0.090919476282003184 -0.074932072483666221 0.036223516388553027 -0.070967139557705644 0.068132161907617422 -0.026503030055366795 0.11945393321766927 0.059177333269784652 0.063829882449302378 0.048440398715675084 0.039692259435964203 0.0028799612060665634 0.047301203904399416 -0.070745424818126137 0.053192490579192508 0.0023043310867240045 0.058664616393329386 -0.015300623819109585
leaf_weight=212.22264113277197 4728.5905225798488 1935.3451062440872 1352.8948664180934 165.91431421041489 2287.611250013113 3627.089248508215 1346.125487908721 3176.3486969769001 5341.4739248901606 340.23590315133333 1302.1943635232747 1816.2537739053369 43.770906373858452 56.228715419769287 1457.5282481610775 16.664062172174454 1415.1463862657547 214.71788692474365 32.00606432557106 47.215571731328964 2209.4939014166594 671.45965673029423 426.49074117839336 120.98498512804508 4057.2028944343328 153.5214164853096 163.36504578962922 352.98617802560329 305.08551796525717 78.095652442425489
leaf_count=986 41331 1455 10382 137 792 2159 2234 5206 12264 2863 10180 3275 45 264 4570 75 856 763 9 34 1656 762 538 233 4331 542 1011 2623 1816 656
internal_value=0.0395346 0.0271337 0.0328063 0.0273846 0.0499362 0.0515476 0.049118 0.0458973 0.0315981 0.0306752 0.0161067 0.0339618 0.0456798 -0.0125042 0.0308233 0.045853 0.0494702 0.0362319 -0.00716311 0.0517828 0.0487642 0.0294334 0.0123342 -0.0239435 0.0531381 -0.0384034 0.0103878 0.0070166 0.0238235 0.0435893
internal_weight=39454.3 17999.1 13270.5 11335.2 21455.2 19785.4 17497.8 13870.7 9082.74 8916.82 1642.43 7274.39 1932.92 116.664 1669.75 60.435 10694.4 1592.85 246.724 9101.52 7686.37 1419.67 748.213 321.722 6266.7 274.506 2252.43 2089.06 736.167 383.181
internal_count=114048 88377 47046 45591 25671 20115 19323 17164 29103 28966 13043 15923 3659 384 5556 120 11958 3006 772 8952 8096 2109 1347 809 5987 775 16488 15477 5095 2472
is_linear=0
shrinkage=0.05


Tree=22
num_leaves=31
num_cat=0
split_feature=0 0 25 25 0 5 19 25 25 32 13 32 37 4 5 25 13 1 25 25 13 5 27 0 0 0 1 13 12 4
split_gain=1915.68 603.59 261.251 360.699 274.629 237.897 223.134 216.674 578.916 140.781 161.555 198.273 128.118 126.28 178.881 124.611 196.846 218.435 167.66 242.049 308.474 123.4 120.18 117.921 184.619 261.709 149.042 196.375 138.074 114.62
threshold=36086.500000000007 68590.500000000015 1.0000000180025095e-35 3.5000000000000004 9256.5000000000018 12829.000000000002 1.0000000180025095e-35 1.0000000180025095e-35 3.5000000000000004 167.50000000000003 0.6078576147556306 15.833333015441896 13375.000000000002 349561.50000000006 83735.000000000015 5.5000000000000009 0.6078576147556306 143785.50000000003 7.5000000000000009 8.5000000000000018 -0.87837970256805409 60627.000000000007 29600.333007812504 24771.500000000004 27306.500000000004 30134.000000000004 40180.000000000007 -0.60785761475563038 0.60355338454246532 19447.500000000004
decision_type=2 2 2 2 2 2 2 2 2 2 2 2 2 2 2 2 2 2 2 2 2 2 2 2 2 2 2 2 2 2
left_child=2 5 23 -4 -5 -2 15 9 -9 10 11 22 -3 14 -11 16 -6 -18 -17 20 -20 -14 -7 28 26 -26 -25 -28 -1 -10
right_child=1 12 3 4 6 7 -8 8 29 13 -12 -13 21 -15 -16 18 17 -19 19 -21 -22 -23 -24 24 25 -27 27 -29 -30 -31
leaf_value=0.023227936543480057 -0.00012929602456677409 0.010765993037062563 0.068343900419674794 0.059345416352769159 0.041796916023903369 0.026457742162015314 0.032120780099211307 0.064469006594390046 0.067448729258850912 0.087031272310873736 -0.013212752356364196 -0.0070884226434368355 0.13355159393803723 0.0095612324607629567 -0.034940059545133656 0.065460306837848412 -0.025363990441596419 0.11193634050346322 -0.075282083814718279 0.049393058187538086 0.030199454594343301 -0.052524956243800436 0.075654587011553615 0.11813070632589535 -0.02165493694232612 0.040555206867948064 -0.048675171014460672 0.071115130378214195 -0.039719758101948624 0.030090460241023131
leaf_weight=338.85271916538477 566.29027741402388 5286.5798070207238 2230.6079493463039 3567.6456235647202 1351.7844707071781 788.50995264947414 3180.4757858365774 1527.4604406058788 210.26999655365944 200.24796295166016 445.7587601095438 419.50091738253832 37.742533706128597 145.08565530180931 34.778489850461483 1399.6921913474798 213.22602465748787 32.500910416245461 77.161432787775993 6953.7029096484184 613.51288585364819 10.973240491002796 146.97767419368029 106.8188898563385 220.72596730291843 713.78403116762638 43.276570305228233 152.20539800822735 116.1654010489583 8270.7324792146683
leaf_count=1170 2352 50282 792 2159 2234 4715 5206 689 250 830 3225 2798 116 856 239 856 763 9 281 6884 931 110 545 126 868 2175 207 292 718 21370
internal_value=0.0376124 0.025644 0.0477701 0.0493967 0.0469625 0.0315505 0.0437622 0.0330221 0.0361347 0.018728 0.0128765 0.0214627 0.0115195 0.0463421 0.0689108 0.0472382 0.0343185 -0.00682397 0.0495162 0.0465887 0.0183234 0.0914244 0.0342598 0.0288888 0.0368906 0.0258541 0.0708101 0.0444827 0.00710563 0.0310245
internal_weight=39403 18090.9 21312.1 19620.3 17389.7 12755.6 13822.1 12189.3 10008.5 2180.86 1800.75 1354.99 5335.3 380.112 235.026 10641.6 1597.51 245.727 9044.07 7644.38 690.674 48.7158 935.488 1691.83 1236.81 934.51 302.301 195.482 455.018 8481
internal_count=114048 88377 25671 20115 19323 37869 17164 35517 22309 13208 11283 8058 50508 1925 1069 11958 3006 772 8952 8096 1212 226 5260 5556 3668 3043 625 499 1888 21620
is_linear=0
shrinkage=0.05


Tree=23
num_leaves=31
num_cat=0
split_feature=0 25 25 25 25 25 0 19 4 0 5 11 25 4 25 14 4 5 25 12 14 25 12 4 1 32 4 4 68 11
split_gain=1809.93 551.08 854.676 284.236 257.181 365.518 272.804 209.574 141.775 162.737 144.009 161.585 140.359 122.662 120.262 306.714 277.387 270.999 254.63 249.351 251.448 235.86 188.993 232.535 178.792 173.931 160.597 153.651 150.978 150.144
threshold=36086.500000000007 1.0000000180025095e-35 3.5000000000000004 4.5000000000000009 1.0000000180025095e-35 3.5000000000000004 9256.5000000000018 1.0000000180025095e-35 12473.500000000002 45776.500000000007 12829.000000000002 0.60355338454246532 23.500000000000004 355524.00000000006 7.5000000000000009 -0.56174489110708226 1043579.0000000001 19548.000000000004 10.500000000000002 1.0000000180025095e-35 0.81174489855766307 21.500000000000004 0.91597560048103344 219105.50000000003 146751.50000000003 110.83333206176759 227159.00000000003 373071.50000000006 1275.0000000000002 0.60355338454246532
decision_type=2 2 2 2 2 2 2 2 2 2 2 2 2 2 2 2 2 2 2 2 2 2 2 2 2 2 2 2 2 2
left_child=4 -2 -3 -4 -1 -6 -7 -8 -5 10 13 -12 14 -10 15 16 27 22 -16 20 26 -22 -17 -24 25 -19 29 -11 -21 -20
right_child=1 2 3 8 5 6 7 -9 9 12 11 -13 -14 -15 18 17 -18 24 19 28 21 -23 23 -25 -26 -27 -28 -29 -30 -31
leaf_value=0.027126959693323238 0.009723657368898719 0.060806190945070927 0.0086132947707141232 0.073882535950652153 0.066725645628894534 0.057406525937810371 0.045148025207512869 0.030492194795127565 -0.052654869565277242 -0.02988594556294499 0.041981543971333635 0.019338912012479198 -0.067214059764931139 0.035476186486018996 -0.00016886189280347595 0.060549454805456565 0.18352392267272724 -0.0054534092970126118 0.035465153294138532 0.040524029681855922 -0.061495697849175579 0.10702109632485715 0.072877253063011668 0.23741760590089511 0.094071233912516872 0.059067813871414424 0.065381497294493565 0.023376428009850032 -0.011332264181210652 -0.070255275032534578
leaf_weight=1710.4102936163545 4816.3377171941102 1868.9565939605236 2297.1915150657296 166.67152237892151 2171.9836349189281 3505.3586224913597 10579.460302352905 3182.8126085102558 85.450570777058601 278.79586727544665 3101.3751805052161 1059.7768014967442 43.721511751413345 71.736290343105793 1356.8883204683661 410.49223244562745 19.439886569976807 350.79358562454581 190.71606856584549 202.59319512546062 92.391908876597881 25.733913064002991 54.219701521098614 36.109164252877235 79.546802669763565 147.65125769749284 680.13846335187554 261.40622074902058 451.03674612939358 39.754023022949696
leaf_count=5556 41331 1455 16488 137 792 2159 11958 5206 325 1767 4674 2237 251 159 7594 1015 6 2355 597 787 522 9 88 45 231 574 1685 1336 2482 227
internal_value=0.0357953 0.0242282 0.0294511 0.024352 0.0457413 0.0473776 0.0449402 0.041761 0.0282778 0.0274289 0.0344463 0.0362209 0.0210047 -0.012464 0.0218435 0.0327626 0.00271718 0.0483319 0.0159481 0.0289394 0.0442714 -0.0241938 0.0752265 0.140532 0.0249385 0.0137393 0.0531696 -0.00411647 0.00477799 0.0170046
internal_weight=39339 18188.9 13372.6 11503.6 21150 19439.6 17267.6 13762.3 9206.44 9039.77 4318.34 4161.15 4721.43 157.187 4677.71 1638.45 559.642 1078.81 3039.25 1682.36 1028.73 118.126 500.821 90.3289 577.992 498.445 910.609 540.202 653.63 230.47
internal_count=114048 88377 47046 45591 25671 20115 19323 17164 29103 28966 7395 6911 21571 484 21320 7417 3109 4308 13903 6309 3040 531 1148 133 3160 2929 2509 3103 3269 824
is_linear=0
shrinkage=0.05


Tree=24
num_leaves=31
num_cat=0
split_feature=0 0 25 25 0 1 13 25 25 19 76 1 11 11 14 11 27 14 1 67 67 12 14 12 28 4 13 5 82 0
split_gain=1698.07 523.989 252.595 370.845 271.895 208.299 454.045 196.654 318.356 195.819 148.464 193.536 173.821 388.455 153.671 146.828 136.496 145.97 277.691 141.182 135.112 206.137 214.494 191.386 161.072 139.092 132.319 234.344 176.905 129.302
threshold=36086.500000000007 65015.500000000007 1.0000000180025095e-35 3.5000000000000004 9256.5000000000018 110890.00000000001 1.0000000180025095e-35 1.0000000180025095e-35 3.5000000000000004 1.0000000180025095e-35 7.5000000000000009 93500.000000000015 1.0000000180025095e-35 -0.7865660786628722 -0.56174489110708226 -0.91597560048103321 42350.833984375007 0.81174489855766307 43853.500000000007 2225.833374023438 1201.3889160156252 0.78656607866287243 0.81174489855766307 0.91597560048103344 0.27543103694915777 430688.50000000006 0.6078576147556306 12659.500000000002 3608.5000000000005 118663.00000000001
decision_type=2 2 2 2 2 2 2 2 2 2 2 2 2 2 2 2 2 2 2 2 2 2 2 2 2 2 2 2 2 2
left_child=2 5 -1 -4 -5 7 15 20 -9 -6 11 26 13 16 -15 -7 17 -12 -19 -18 -2 -22 24 -24 -23 -26 27 -10 -29 -3
right_child=1 29 3 4 9 6 -8 8 10 -11 12 -13 -14 14 -16 -17 19 18 -20 -21 21 22 23 -25 25 -27 -28 28 -30 -31
leaf_value=0.025475531058136915 -0.018563672923045657 0.014761745296580456 0.065229597424713057 0.0555844338028652 0.043134432186926516 0.00037275559145821954 -0.013763849772037687 0.056436331247871757 -0.071388341722314411 0.02896060290813933 0.0490828182066574 -0.03043357514206322 0.045079002950078058 0.022651140045139073 -0.017786351393897899 0.059457201289395967 -0.058960221939855922 -0.059260436495798 0.066597460525821939 0.047641729308248809 0.0087570904774344534 -0.013776274799973152 0.21729856401700509 -0.052004787315173231 0.12683735098079021 -0.054539780810956388 0.037416123745383605 0.025878424579966003 -0.0038362901595441409 -0.0028644269478868764
leaf_weight=1729.7700605988503 331.49215916544199 4644.542107719928 2112.249279871583 3440.9323863536119 10521.191663384438 113.50204309821129 282.70702496170998 944.72457945346832 74.563133172690868 3183.6058454960585 1309.8412562981248 190.90976473689079 1612.8493992909789 401.44017077982426 563.49257866293192 1429.7906045764685 68.263966992497444 91.588646687567234 82.218424893915653 55.345039755105972 1038.5818760842085 74.807634778320789 32.999176323413849 7.7646582499146453 54.11522601544857 12.473331965506075 923.31439555436373 1880.805586963892 682.23940185457468 1340.3900258280337
leaf_count=5556 2273 36693 792 2159 11958 516 1545 530 399 5206 2583 842 2979 1027 2033 3066 287 412 129 97 6003 508 65 64 217 100 2215 4650 2194 16950
internal_value=0.0341033 0.0229445 0.0438022 0.0454469 0.0430061 0.0288647 0.0444492 0.0261333 0.029003 0.0398442 0.0257309 0.0184998 0.0322075 0.0241222 -0.000957142 0.0551149 0.0391701 0.043374 0.000316304 -0.0112307 0.00970562 0.017391 0.0663008 0.165985 0.0365985 0.0925576 0.021131 0.0154183 0.0179705 0.0108144
internal_weight=39232.5 18244.8 20987.7 19258 17145.7 12259.8 1826 10433.8 8881.6 13704.8 7936.87 3751.83 4185.04 2572.19 964.933 1543.29 1607.26 1483.65 173.807 123.609 1552.23 1220.74 182.16 40.7638 141.396 66.5886 3560.92 2637.61 2563.04 5984.93
internal_count=114048 88377 25671 20115 19323 34734 5127 29607 20377 17164 19847 10300 9547 6568 3060 3582 3508 3124 541 384 9230 6957 954 129 825 317 9458 7243 6844 53643
is_linear=0
shrinkage=0.05


Tree=25
num_leaves=31
num_cat=0
split_feature=0 0 25 25 0 5 25 25 25 13 1 25 25 16 0 0 12 12 11 0 1 11 27 20 1 30 11 1 13 88
split_gain=1600.33 475.549 247.298 375.503 270.469 191.587 186.556 295.444 427.387 164.322 296.568 163.239 486.175 151.912 149.83 142.615 147.285 142.359 188.814 150.006 199.475 127.661 196.37 149.443 148.408 137.654 150.717 134.109 165.628 237.829
threshold=36086.500000000007 65015.500000000007 1.0000000180025095e-35 3.5000000000000004 9256.5000000000018 12829.000000000002 5.5000000000000009 7.5000000000000009 8.5000000000000018 0.6078576147556306 138191.00000000003 1.0000000180025095e-35 3.5000000000000004 1.0000000180025095e-35 35203.500000000007 30481.000000000004 0.98296290636062633 -0.12940952181816107 0.60355338454246532 32106.500000000004 35069.500000000007 -0.7865660786628722 7008.3332519531259 29.500000000000004 98159.500000000015 0.39611437916755682 0.12940952181816109 103869.00000000001 0.6078576147556306 2.5000000000000004
decision_type=2 2 2 2 2 2 2 2 2 2 2 2 2 2 2 2 2 2 2 2 2 2 2 2 2 2 2 2 2 2
left_child=2 5 -1 -4 -5 -2 9 -8 13 -6 14 -7 -13 17 -11 16 -10 18 -9 20 -19 27 24 -24 -23 -25 -27 28 29 -3
right_child=1 21 3 4 6 11 7 8 15 10 -12 12 -14 -15 -16 -17 -18 19 -20 -21 -22 22 23 25 -26 26 -28 -29 -30 -31
leaf_value=0.023947863825176247 -0.0015789306778760414 0.055820335541068626 0.063840768765707961 0.053864544236371194 0.030826671220854047 0.015908184026575175 0.059484812943574154 -0.010372829192414657 0.045485730771696292 -0.040930593577414937 0.081865171220800323 0.059250661878500158 0.026899345203699743 0.088949735564382404 0.070443069618643356 0.03010441430771138 -0.014574855782151543 0.032645849285491399 0.054294998084077783 0.029348289223914116 -0.056355361632960344 0.037001218010894253 -0.0036219418252981155 -0.0035765097515303062 0.0063048642333410681 -0.014184555017592335 0.18261985453694476 0.0057138501512818997 -0.016918399097965227 -0.030870714070272112
leaf_weight=1747.6947114095092 546.88184335827827 635.33133495599031 2051.8473056554794 3374.9799984395504 1781.5601376593113 2061.9769606739283 1751.9856643080711 232.78755137324333 6304.2369368821383 263.41866457462311 75.912573620676994 1349.6263972818851 8332.3797294721007 50.759016171097755 33.172991827130318 2358.9713264703751 103.32207304239273 81.907594084739685 217.63784241676331 120.74246498942375 263.32563100755215 716.54369442164898 2850.7155653238297 40.759660847485065 873.69788447022438 13.812466807663439 30.83503220975399 649.90046659111977 126.01468957215548 89.699532218277454
leaf_count=5556 2206 3750 792 2159 3214 11742 1190 518 6124 990 42 661 20125 13 58 3366 257 111 198 221 862 4668 27984 372 8542 114 128 6234 1116 735
internal_value=0.0324854 0.0217052 0.0419712 0.043622 0.0411801 0.0273466 0.0380378 0.0405716 0.0371616 0.0245149 -0.00567357 0.0286936 0.0314146 0.00561189 -0.0282789 0.0406412 0.0445151 0.000903921 0.0209246 -0.018452 -0.0352063 0.0101987 0.00600578 -0.00165962 0.0201508 0.0631226 0.122758 0.0228307 0.03588 0.0450673
internal_weight=39132.4 18318.2 20814.3 19066.6 17014.7 12290.9 13639.7 11485.7 9733.69 2154.06 372.504 11744 9682.01 967.16 296.592 8766.53 6407.56 916.401 450.425 465.976 345.233 6027.31 4526.36 2936.12 1590.24 85.4072 44.6475 1500.95 851.046 725.031
internal_count=114048 88377 25671 20115 19323 34734 17164 12860 11670 4304 1090 32528 20786 1923 1048 9747 6381 1910 716 1194 973 53643 41808 28598 13210 614 242 11835 5601 4485
is_linear=0
shrinkage=0.05


Tree=26
num_leaves=31
num_cat=0
split_feature=0 25 25 25 25 0 25 19 4 0 11 1 25 25 13 1 25 25 14 1 25 0 0 14 0 11 31 1 1 14
split_gain=1513.56 435.696 785.15 242.483 377.845 266.584 242.45 181.555 128.659 140.693 126.615 154.751 126.348 125.41 159.536 179.885 157.239 223.349 166.193 265.011 150.095 140.832 130.902 129.612 289.791 203.247 118.968 128.445 115.724 325.628
threshold=36086.500000000007 1.0000000180025095e-35 3.5000000000000004 1.0000000180025095e-35 3.5000000000000004 9256.5000000000018 4.5000000000000009 1.0000000180025095e-35 12473.500000000002 45776.500000000007 0.60355338454246532 31638.000000000004 23.500000000000004 5.5000000000000009 0.6078576147556306 143785.50000000003 7.5000000000000009 9.5000000000000018 1.0000000180025095e-35 39213.500000000007 12.500000000000002 12720.500000000002 23844.500000000004 0.81174489855766307 29775.500000000004 -0.6035533845424651 3.2834224700927739 35069.500000000007 31638.000000000004 0.81174489855766307
decision_type=2 2 2 2 2 2 2 2 2 2 2 2 2 2 2 2 2 2 2 2 2 2 2 2 2 2 2 2 2 2
left_child=3 -2 -3 -1 -5 -6 -4 13 -8 10 11 -10 -11 14 -7 -16 -15 18 19 21 28 -18 -22 -24 25 -25 27 -23 29 -19
right_child=1 2 6 4 5 7 8 -9 9 12 -12 -13 -14 16 15 -17 17 20 -20 -21 22 26 23 24 -26 -27 -28 -29 -30 -31
leaf_value=0.022531453276771252 0.007826716568383657 0.056253436665990808 0.0061778189354621911 0.062546315659253907 0.052234453875846444 0.033442106266785933 0.067617409506959644 0.025908384295349335 -0.029368513855462658 0.018215995252276865 0.015382563002604139 0.036772211398669007 -0.066867552596607122 0.057784242393945466 -0.026901112511205829 0.097031797782968277 0.051267102196835806 0.046588392198422902 0.039235804680994302 0.030800149744582641 0.047725932572126623 0.021600192440726695 0.033572497411583045 -0.12164988359595641 -0.08846120558713931 0.049811947783329459 -0.095716771138849077 -0.059606234372646998 0.058600893762791345 -0.10188060512928845
leaf_weight=1764.3036923110485 4931.3919074609876 1767.5784076079726 2359.0747365355492 1991.159928008914 3308.0333805084229 1362.906245559454 166.25707377493382 3175.3311334103346 90.30615870654583 4779.3050287254155 1122.5334814041853 3126.0759794861078 43.078061521053314 1333.2428571730852 214.9314586520195 32.881197527050972 45.000916764140129 244.97770662605762 657.1234946846962 415.97379465401173 1729.1133246421814 89.265696361660957 1946.2276112288237 18.537559986114502 72.151365250349045 151.1961544752121 76.8439611941576 105.08868981897831 1836.0862477719784 42.49247881770134
leaf_count=5556 41331 1455 16488 792 2159 2234 137 5206 366 21320 2374 4655 251 856 763 9 34 228 762 538 1492 129 2374 78 261 126 299 347 1266 162
internal_value=0.030974 0.0205424 0.0252021 0.040277 0.0419368 0.0394989 0.0205012 0.0363859 0.0241228 0.0233262 0.0298602 0.0349066 0.0174422 0.0395901 0.0267358 -0.0101331 0.0419494 0.0391006 0.0210016 0.00460522 0.043259 -0.0298438 0.0374348 0.0292843 -0.00521487 0.0304828 -0.0434417 -0.022389 0.05398 0.0243653
internal_weight=38998.5 18385.6 13454.2 20612.9 18848.6 16857.4 11686.6 13549.4 9327.56 9161.3 4338.92 3216.38 4822.38 10374 1610.72 247.813 8763.32 7430.08 1389.3 732.173 6040.78 316.199 3917.23 2188.11 241.885 169.734 271.198 194.354 2123.56 287.47
internal_count=114048 88377 47046 25671 20115 19323 45591 17164 29103 28966 7395 5021 21571 11958 3006 772 8952 8096 2109 1347 5987 809 4331 2839 465 204 775 476 1656 390
is_linear=0
shrinkage=0.05


Tree=27
num_leaves=31
num_cat=0
split_feature=0 0 25 25 0 1 13 12 13 1 25 25 25 13 34 11 12 14 29 1 1 39 30 69 28 67 27 41 27 12
split_gain=1426.33 414.266 236.989 379.673 262.456 183.437 396.432 173.338 165.069 176.041 152.971 288.629 152.526 171.295 131.306 128.637 128.457 122.781 122.454 122.372 129.579 121.748 144.112 119.207 235.264 144.208 175.589 182.949 146.382 123.98
threshold=36086.500000000007 65015.500000000007 1.0000000180025095e-35 3.5000000000000004 9256.5000000000018 110890.00000000001 1.0000000180025095e-35 0.37940952181816107 -0.60785761475563038 110890.00000000001 1.0000000180025095e-35 3.5000000000000004 5.5000000000000009 0.6078576147556306 2.5000000000000004 -0.91597560048103321 0.98296290636062633 1.0000000180025095e-35 1.3956521749496462 42332.500000000007 143785.50000000003 3751.071411132813 0.33167906105518347 1937.8112792968752 -0.11024305596947669 1951.7857055664065 6470.8332519531259 907.48269653320324 41455.833984375007 0.60355338454246532
decision_type=2 2 2 2 2 2 2 2 2 2 2 2 2 2 2 2 2 2 2 2 2 2 2 2 2 2 2 2 2 2
left_child=2 5 -1 -4 -5 10 15 12 -9 16 21 -12 13 -6 -13 18 -10 -8 -7 -14 -21 -2 -23 25 29 -3 -27 -28 -29 -25
right_child=1 23 3 4 7 6 17 8 9 -11 11 14 19 -15 -16 -17 -18 -19 -20 20 -22 22 -24 24 -26 26 27 28 -30 -31
leaf_value=0.021215493261292656 0.0045182305102457665 0.011811471098249413 0.061335163762582037 0.050683568359529522 0.030909975387259998 -0.037163613823545043 -0.045601700061438821 0.037805018407081697 0.015812290846101664 0.060332448826553621 0.051983244550949076 0.016875111672735539 0.037033255515212568 -0.016174869000018615 0.030131445671418979 0.053475312431008351 -0.034406078964544722 0.020034238806668509 0.07213975969493841 0.051996478439117789 -0.031818391764293345 0.12680433285003795 -0.0009596636901584325 0.087022080651611336 0.008535210179719711 0.021845873698855454 -0.031554898310217391 -0.0020442154845802295 0.082273034921179045 -0.05372590570344439
leaf_weight=1779.7054401114583 1497.7416271716356 3834.9753525182605 1930.5158299952745 3240.553284034133 1226.6081749200821 77.636175327003002 150.82465501874685 1666.5361333191395 1878.3087413460016 210.96882803738117 876.66000194847584 5066.7454589232802 5636.9653695970774 228.582459166646 2964.3094894662499 1426.805970788002 135.66809983551502 133.43708652257919 37.009865783154964 2425.2242500036955 46.38333760201931 44.564206525683403 42.7772351577878 178.54280106723309 419.31688557937741 425.07693115994334 722.6009856313467 453.39375692605972 57.061057515442371 16.478571850806475
leaf_count=5556 8824 33343 792 2159 2096 418 912 2167 3328 189 530 13325 6185 751 6522 3066 417 633 98 1902 129 149 257 1097 3453 3471 7446 4303 354 176
internal_value=0.02956 0.0194739 0.038666 0.0403321 0.0379 0.0247527 0.0393832 0.0348177 0.0259073 0.0169827 0.0222035 0.0247501 0.0384402 0.0235078 0.0217712 0.0493837 0.012414 -0.0148289 -0.00155978 0.0411168 0.0504113 0.00788571 0.0649268 0.0088245 0.0296953 0.00648538 -0.00583266 -0.0153844 0.0075236 0.074916
